1246 256
<start> -0.9556584 0.57462716 0.5609077 -0.748125 -0.14218515 -1.5475507 -0.38888985 0.11178495 1.0684448 0.21791011 0.62515736 -0.94548935 -1.3910025 -1.1221013 -2.052423 -2.7955225 -1.1869494 -0.7903087 -0.6251758 -0.08022549 -0.9374361 -0.32984564 0.73868805 -0.5719198 -1.1290005 -0.16626754 -0.068882264 1.7094381 0.5474369 -1.25679 0.6351566 -1.0545763 -0.35956773 1.5333855 0.07739684 0.020210842 -1.1116657 0.48752886 0.407143 0.6526245 0.6844287 1.5650123 0.20369984 -0.713546 -1.7675426 0.3794017 2.1133401 0.23343986 0.10867958 -0.32466704 0.7465388 -0.24411158 1.3763628 -0.044155553 0.06156584 0.9127323 0.83209866 0.1957587 0.77555394 -0.098751016 -0.8269196 0.5193504 0.06563795 -0.31276092 0.4736858 -1.1056567 0.25820616 0.1415311 -1.2362427 -0.05030448 -1.3656259 -1.2613188 -0.33085582 1.0732145 -0.28026694 0.9142218 -0.3230001 0.21417984 1.021834 2.1346865 -0.6951057 0.2223265 0.0003075472 0.25490513 0.8745766 1.8058981 0.06767813 -0.5151292 -0.8212067 -0.45939678 0.2971614 -1.6066456 0.4882313 0.8099354 -0.058647383 0.076428324 0.21473612 -1.1014104 0.39423165 -0.08801716 1.1495159 -0.44744247 0.67623174 0.26989734 0.6068592 -0.43335864 -1.5351344 -0.34787485 0.46473414 -0.8220508 -0.07142357 -0.13783726 0.617097 0.98756385 0.3276369 -0.4144749 0.5557114 -0.18660195 -1.103425 -0.82856077 -0.24518958 -1.1312377 -1.7149599 0.8021895 0.06774099 0.9779415 -0.4134723 0.99134076 0.37933785 -0.6294642 -0.4527629 -0.1984617 0.81936556 -0.23321679 0.27449286 0.18756974 -0.0704993 0.7088073 -1.5909134 -0.36257192 -0.9023235 0.5755514 -1.1851653 0.33431813 1.1504616 0.23423351 1.0029566 0.71676385 -0.21356787 -0.4572438 1.1180786 -0.8848765 0.6947592 -0.0006128114 -1.2905015 0.025387479 0.061408557 0.39462078 0.23668823 0.29848832 1.1972173 1.0492988 -0.9744122 0.628243 -0.26918292 -0.092117615 -0.89838874 0.13486044 0.43974692 -0.33312574 -0.68102235 0.052353896 0.29457375 0.2873575 -1.3073168 -1.887816 0.7218034 0.73610467 0.54794097 0.8567895 -1.9647512 0.59319836 -0.68320787 -0.6072765 0.029068906 -1.5941412 -1.1670651 -0.6164885 -0.30453664 0.90058875 -0.043010406 0.5360278 -0.08956839 -0.7064213 0.2966328 -0.19646053 -0.37751088 -0.71380305 -0.1981726 0.61359286 -0.5250477 -0.12081401 -0.01819511 -0.7555429 -0.676834 -0.23918147 -0.0675111 0.8673723 -1.0628223 -0.26519138 0.9394871 0.37595987 0.33995864 0.22154418 0.38166428 -0.43248016 0.64193034 -0.49375358 -0.83472437 0.118295446 -0.6099648 -1.586093 -0.52639496 -0.073640935 -1.211045 0.49813986 0.32223013 0.72820765 1.7427628 -0.86485803 0.068261325 1.3981612 0.49689063 -0.4307384 -0.06907964 0.4800791 -0.19013305 1.2748165 -0.9489661 0.5905949 0.120734334 -0.4433552 1.3754882 -0.7377766 0.4443849 2.1086342 0.5042546 1.0094492 -0.4688894 0.5975634 -0.8427694 -0.6016477 0.6362971 -1.143535 -0.14559567 -0.8572224
<end> 1.4078885 -0.21438909 -1.5469651 1.2218423 0.5385176 0.76356626 -0.7959372 -0.075485036 -0.97158 -0.95413905 0.5881293 0.4923217 0.15445893 -0.21957138 1.372468 0.4764882 0.40826496 0.37174705 0.54918164 -0.048680056 -0.7016888 -0.82205135 -0.017761575 1.0487413 0.24804363 1.8277977 2.1961596 0.55092937 -0.19364628 -0.14012471 -0.013332672 -1.0321347 0.9800915 -0.57314944 0.8042061 0.2973304 0.14875187 0.12881163 -0.19459276 0.62677187 -0.3981655 0.43898305 0.22972475 1.0677733 1.5256524 0.37757704 -0.26238346 -0.6038651 -0.40088373 0.65197307 -1.1303946 -1.5324225 -0.72993577 -0.258766 0.8820091 -0.90023994 -1.0117937 -0.005731477 -1.1468498 1.1431279 -1.0763383 0.49979007 0.58604354 -0.30147937 0.861669 -0.48025486 -0.3129989 0.12056591 0.6652911 -0.692555 1.0412126 -1.1955158 -0.60499936 -0.62637657 0.494764 0.22004265 0.29089287 -0.6675811 -0.022818808 -0.3689599 1.597163 -0.0979187 -0.5938998 0.258386 0.60352737 -0.2579041 -0.29180643 -0.5388788 -0.81808245 0.74875134 -0.10407733 -0.39894247 1.1382761 -0.57867765 0.09733918 0.11813532 -0.15478848 0.9452271 -0.3128159 0.5701502 -0.38546026 -0.26782596 -0.5553157 0.77036744 -0.29560676 -0.14338906 1.171794 0.11529106 0.2953516 1.1279771 0.19743124 0.026843278 0.64112806 -1.1048461 -1.2147485 0.9261174 -0.3890249 0.37515506 0.24464554 -0.2633704 -0.8005602 0.15137964 0.2296468 -0.8542253 -0.34833136 0.27662775 -0.40522844 -0.3632605 -0.026824301 0.09063931 1.0385385 0.3827795 -0.055531 -0.2973574 -0.3148888 -0.33649155 -0.20749699 0.5344332 0.12351852 0.013936028 -0.024078822 0.23819184 0.85496205 0.27476236 -1.0659137 0.6425986 -1.149047 -0.7119509 0.8280138 0.037514016 -0.42368582 0.794494 0.17743517 1.2511699 1.2010988 -0.78885007 0.080581084 0.5616449 -0.09112025 -0.284719 -0.45931676 -0.20827124 -0.059437834 -0.99752086 -0.19797081 0.30525538 1.5366794 0.7718752 -0.2877089 -0.8196807 0.21735086 0.01149973 -0.10912776 0.092992835 0.35995242 -0.17039828 -0.32848105 -0.6978459 0.730186 -0.950681 0.034496922 -0.55946475 1.8021756 -0.21982269 -0.9638796 -0.80919635 0.23099184 -0.21634367 -0.39759037 -0.17614257 -0.7431946 -0.748632 -0.6210672 0.4419682 -0.22989127 0.97975665 0.503438 0.27453074 -0.37474447 0.2463576 0.9920408 0.66075146 -0.15684992 1.638058 -0.059378143 0.3710998 -0.59267324 -0.107227266 0.35894787 0.14089327 0.40331292 0.29409963 -0.468587 -0.64643914 -0.40334773 0.08988055 -0.0024137888 0.78437024 0.44997293 -0.38139483 0.96728337 1.403635 -0.06138569 -1.2848299 -0.74790436 -0.67628014 -0.3540457 -0.65327543 -0.9058285 -0.83606845 -0.8486662 -1.3600676 -0.57210064 -0.60105276 -0.058832183 -0.8708934 -0.48260474 -0.74919015 1.3100773 -0.77161324 -0.637725 0.83674264 0.28553486 1.9813385 0.1955344 -0.6224953 0.028264094 0.22924964 0.070394635 0.36588717 0.34131303 0.8682739 1.1731375 0.33678776 0.024870865 -0.25830284
في 3.6281328 2.138963 0.75464207 0.6994814 0.25293484 -0.58320075 0.40088585 -1.4178277 -0.5024813 -0.32641238 -0.942322 -0.83040833 0.13869737 -0.26937452 -0.28421223 0.74687535 2.363677 1.9917588 -0.63330156 0.3600391 0.40850732 0.34434867 2.503373 0.14443071 -0.99669236 2.8688564 0.020303175 0.77851945 -0.45879337 0.57716435 -1.5606698 -0.91623765 3.023522 -0.21678776 -0.1959159 1.106574 -1.6145556 0.36684537 0.61470526 -2.0583308 1.1337233 -0.55371296 -0.64561546 0.30068317 1.3071039 -1.4632018 2.9040759 1.8086108 0.16983983 0.44255406 1.7716775 0.43234625 -2.1639786 1.5878758 -1.4202977 1.1636554 0.7778467 -0.64764565 -0.6737795 -1.251903 1.1955293 -1.2691574 1.8667953 2.694709 2.6265 1.3771898 -0.18884005 1.4992732 1.3584709 -0.26366815 1.2694279 0.5019792 0.37715912 -1.2316903 -1.1226366 -0.021959668 0.6380663 0.9703848 -0.067750014 1.1769756 0.40800127 -0.18140915 -2.9329314 -0.5020938 1.336929 0.5026564 0.5146759 -1.5772893 -0.76496494 -2.6562552 -0.6630751 -1.4995548 -0.08033403 -1.1664803 0.4473116 -0.71410984 0.4533124 1.3678428 -0.4032722 -1.335973 -0.24292527 -0.40651873 0.69034016 -0.6978221 -1.404933 0.16469187 1.0771476 1.6349528 -0.029700182 -0.31127813 0.53649795 0.0819159 1.4279281 -0.46935531 2.0066407 -1.2353702 1.0690545 -0.580979 -0.35312638 -2.2403188 -2.4649854 -0.54650277 -0.28077245 -0.8749853 -0.40001488 1.7580163 -2.4237967 -0.7062109 0.98199314 -0.6437742 -1.9658701 0.91410714 3.749957 1.1246773 0.97389215 -1.0093294 1.1443235 0.13350607 1.2395476 0.48078796 -3.4076366 -0.728283 1.7248616 2.5385213 -0.57188976 0.15255366 -0.68255734 -1.827396 -0.38867876 -0.03442452 0.5640375 1.5702808 -0.9124189 1.6207001 -0.6066183 -0.7465888 -1.3330201 -0.77810425 -1.3142821 0.8067032 -2.2762272 1.1267452 -0.45056942 -1.3290439 -2.2659996 0.13581187 0.54378635 -0.57537466 -1.3490503 1.8539274 1.0377139 -0.23391952 0.17717575 -1.0372256 -2.7079744 -1.3725982 -1.2396227 -0.50024605 -0.12451627 0.6368454 -1.2818396 -0.73957646 1.8641999 -1.6070024 -0.089086585 -0.9739186 0.049780395 -1.7724719 -0.40725815 -0.95217234 1.0595186 1.4693098 -0.88319385 3.1847148 0.6516216 0.83979046 -0.05722753 1.9925966 0.17664422 -0.6021579 -2.3799002 -0.9093425 -0.08954408 -0.3187306 0.74574125 0.19541346 -1.2325779 2.0885916 -0.3357511 1.0971102 0.9169981 -1.4193546 -0.9335374 0.2024322 0.44096667 2.0297456 -1.5229616 0.16113822 -0.08985106 -0.10455076 -0.61422545 -1.1407723 1.046428 -2.274944 -0.29548302 -1.0781021 -0.14723966 -1.0097203 0.48189667 1.2105211 -0.9773893 0.530843 -0.44114965 0.64750546 -0.99873203 0.8582966 -1.1331415 -0.60219663 1.765816 -1.7034744 -0.9300348 1.2610756 0.684716 0.14945309 2.5116942 -0.28675142 -2.816715 -0.07920849 -1.1929643 -0.63066614 -0.21111599 1.1434852 1.1214373 -1.6338602 -0.25383127 0.24700378
و 0.34962657 -1.169601 -0.24045154 1.0665718 -2.0134022 -0.10209091 2.1719997 -2.2555983 0.261725 0.17413355 -1.7021543 0.3470439 -1.1994596 -0.35397938 0.18027933 2.724567 2.3903592 1.3495263 0.97758657 -0.7850795 -0.0566593 0.46103233 -0.009131588 0.40863365 1.8312987 -0.37922558 0.15284327 -1.7939842 1.302823 -0.6656522 0.83207256 1.0110291 2.0667424 -1.5222293 1.4504043 -0.462015 -1.8287868 -1.0491796 -2.1055028 0.93554854 -0.67328054 -0.425238 -0.040250417 0.7611466 0.5915098 -0.2550192 0.41336557 -0.05150389 1.2958987 -0.26786205 -1.8108524 -1.1248077 -0.6442403 -0.28414398 1.7587439 -1.3335623 -0.54092616 1.1231943 0.10128412 0.007112668 -0.22958484 2.3286214 1.7373437 1.4214125 0.16837619 0.96344936 -1.9950393 0.07347273 1.2025441 0.5603513 -0.49073592 0.8379834 -1.8590238 0.19304068 1.5650363 -2.0971675 1.9776366 -1.6730447 1.0258262 -0.007050632 -0.14781752 0.04053775 -0.7647474 -0.6835074 -0.9659638 1.9988048 0.02252146 0.5941683 0.27417508 0.30138627 0.022789974 -0.58902013 2.4815974 1.3479261 0.1919992 -0.44590348 0.5225707 -0.71406627 1.7074171 0.26662785 -0.016531691 -0.67269963 -1.212485 0.512196 1.8370801 0.4662181 1.7597898 1.1453997 -1.6154972 1.880985 -0.64001167 -0.5801945 1.6038557 0.39513358 -1.5360205 1.6208761 -0.97100663 -0.20783904 1.083668 0.5583398 -0.5961183 0.22221032 -0.30235928 -1.1464257 0.4410067 1.2666937 1.5313636 1.3698255 -1.8694323 1.1351571 2.42427 2.0627103 1.2465315 -0.7726302 0.43059516 -0.69619954 -0.4127546 1.3173696 0.077767394 0.935685 1.42256 -0.91573024 -1.4148606 -0.11573452 -0.4198523 -0.19338264 -2.2260125 1.7149041 -0.7673572 0.72796965 0.40925813 0.15375999 -1.0541383 0.89399713 1.2861412 -1.851208 0.58020276 -1.3318634 1.3058479 -0.019048002 -0.59301585 -1.3379223 -1.2184314 -1.2648958 -0.46958542 0.26886162 -0.19863981 1.3091458 1.0850215 -0.7376096 0.43829307 1.5940741 0.6293231 -1.0978428 0.92541647 0.66445595 0.8309791 -0.9203496 0.5866027 -0.93234664 0.44654322 1.7190787 -0.068551265 -0.5122708 1.0531526 1.5185461 0.96144795 -0.36424634 1.1587988 -0.57071143 -1.2467731 0.8810897 -1.2599026 1.3379679 0.93629444 -0.10019539 1.1200002 0.23052087 0.41400138 0.21825758 -1.2591552 0.028969148 1.0373726 -0.6747524 -0.23313141 1.1669718 0.6727784 -0.9052892 1.4525498 0.71549577 -0.50728333 -1.3647705 -1.6242216 0.5389891 -0.7155047 0.10111954 1.311911 0.7972026 1.4819306 -0.5963468 0.7997738 1.9445212 0.38850063 1.7603072 0.18245414 2.5295672 -0.33142188 -1.6288524 0.28423655 -0.81906796 1.0708108 -2.3355196 1.0540121 -0.022532433 -0.7410107 -0.56029254 -0.69626516 -1.5913272 -0.22358707 -0.50551623 -1.1539754 0.068006635 -2.0408022 0.030122045 -0.8294009 0.97739947 0.8584612 -0.687138 1.002745 -0.26015615 0.10158768 0.16575375 1.8981879 1.024191 -1.020058 0.60414094
عدد 0.62055576 -1.0455217 -0.72151035 -0.16980901 -0.8139394 0.35047916 -0.8491942 -1.1497064 1.9616094 1.6699128 -0.24938126 -0.3685267 0.16067958 1.727073 -0.76736885 -0.33901376 -0.06727486 0.24934585 0.54518384 -2.723456 -0.80252105 -0.48872548 1.297755 2.4520447 0.8443768 0.27413937 0.21448879 -0.77896386 0.94159395 -0.4236303 0.45323262 1.6876388 -0.893276 -0.412913 0.593032 2.6115987 -0.85244715 0.642437 -1.5137784 -1.1244655 2.4532049 -2.4958935 -0.73876435 2.8092554 -0.6069014 0.80075866 -1.486625 -0.41171125 1.2613044 -1.4469163 0.47527763 1.1197643 -0.38209593 -0.6022751 -0.5470723 0.14925757 -0.20473851 0.46042556 -0.021616526 -0.4741351 0.54503495 2.592547 -2.3309264 0.21652806 3.089566 -2.2827358 -0.7485771 -1.7025622 1.3012232 -0.8428151 -1.2964818 -0.2447264 0.9268609 -0.6139969 0.50324553 1.6126302 -1.3762283 -0.2633626 -0.10218476 1.5278845 1.0795516 3.303978 -0.31420547 4.012527 -1.4571224 -0.46120882 2.4792204 0.9104972 -0.07139985 1.1778535 0.058435235 0.24271885 -0.08603711 -1.7407149 0.54290754 0.9135385 -0.52118236 -0.67581666 1.0226698 -1.1781352 -2.684965 -0.15130904 -1.0291555 1.68796 1.8855522 1.236982 -0.5858121 0.7247802 -0.42500174 2.5016701 0.14814788 -1.0539551 -0.7189925 -1.2238832 -1.1842101 -0.4402376 0.944712 -1.3329017 -0.24610826 -1.0329021 -0.74409866 0.83430564 -0.8624991 -0.71438324 -1.4049014 0.120696545 0.8127534 3.1398628 -0.39540172 -0.7957067 -0.04619964 -0.2218133 1.0652204 -2.3976426 -0.051726397 0.33887255 -0.028182147 -2.0113385 0.31028098 1.4561539 0.43853286 0.3244381 -1.8639468 -0.29061607 1.4527801 -0.97493136 1.4542816 0.9002401 -1.2336012 -0.68605965 -1.9385637 -1.1273249 -0.055988654 -0.8607139 -0.57009685 -0.85983074 0.22207862 1.3897114 0.504621 0.6316237 0.14572299 -0.027655486 1.5648539 0.78028345 -1.6230973 0.6457221 2.2436657 -1.0848198 -0.9050119 -3.0538504 1.0578392 1.9394234 0.14417966 0.31386092 -0.18052673 2.3132627 -1.9431566 -0.12452339 -0.77530557 0.585248 1.0714071 2.4281187 1.1727417 -0.13277167 1.9483852 -0.99103564 -1.8467189 2.0084796 2.1963437 -1.0856849 -0.91837686 1.1177896 -0.80934846 -2.5036004 0.90658814 -1.6948419 -1.9827898 1.3505104 0.008576948 -0.39074394 0.87430054 -1.9362024 0.3477274 -0.1665586 -0.47728908 0.22895503 -0.6308522 0.047132254 -0.52230936 0.1665113 0.4362032 -3.0816832 0.6542134 1.0126449 1.4322847 -0.31215122 1.1357849 1.7995635 -0.21280657 1.1466792 -2.6276312 2.0319488 0.0048182085 1.4407185 0.69404656 0.11424854 0.2183324 -1.6938632 0.27362293 -2.1197705 -1.2554562 2.937011 -0.17823839 1.2678181 1.2082665 -0.9094822 -1.4983182 1.6077636 -0.482664 2.0185077 0.33936 1.0406439 0.31264842 -0.66800123 -1.1400908 1.5405064 0.7008402 1.5084915 0.40937322 -1.4927834 0.84914684 -1.5383519 -0.37757555 -1.9798174 -1.600551 -0.72305334
العلوم -2.354144 3.0939932 -0.4941984 1.4612933 -0.9523224 -1.8887514 -0.06641425 1.5935826 -2.537684 1.8628598 1.5782704 1.541187 2.4321043 -2.20648 -1.2225004 1.2203451 -1.8120447 -2.558798 0.4814438 2.238348 -0.37676004 1.5306641 3.5439327 -1.1517763 0.23017201 0.9938772 0.43463507 0.70324963 -0.8584212 -1.7630101 0.050792005 1.3861122 -0.18698488 0.6550537 0.23392387 -0.8955943 2.3242452 -0.6695042 2.055715 -1.7466139 -0.60981977 -1.698993 -1.9380593 4.8012385 0.29073787 -0.6544731 -3.5499458 2.2127779 -2.6635718 -0.05099784 1.3538474 1.0556073 0.5317914 0.57835335 -0.0139026595 0.34196162 -0.41041994 -1.0530212 -0.21632163 -1.6451771 -0.4908336 -0.051366147 -2.9288912 -1.1167072 0.7004493 1.5850968 -0.7928507 0.918078 1.4484093 -1.0203795 -0.93590426 1.265987 1.1522357 0.5759609 0.88642615 -0.8293351 0.791388 2.4324365 -1.6016257 1.4246824 -0.4188424 -0.5900463 3.459471 -0.87989897 -1.3372953 -2.5812824 0.4172217 2.6169446 -2.519203 2.190256 -0.7472605 0.7077613 -1.1273559 0.569981 -1.3918313 1.3539804 0.34364536 -0.104971975 0.2420819 0.39668617 1.81474 2.0474727 -1.3734511 1.7285521 1.1116904 1.8925678 1.1678466 -0.22923028 -1.0922278 -0.20518962 0.49631593 -1.263476 -0.24372932 -0.61621296 1.0579625 0.09168231 0.76738536 0.5215826 -2.1295893 1.328718 -1.1006361 -0.6446933 2.1607206 -1.2461804 1.199852 0.6739251 1.5084184 -1.2950032 -0.9104637 -1.3388038 0.4766121 -0.27468017 1.0791975 1.4624482 -0.50790733 -1.9359779 -0.7236175 -1.940613 -1.0067594 -2.4460592 -1.6949576 0.14063469 0.19743083 0.09802569 -4.2646146 -1.3340183 -0.96990424 -0.19250335 -0.5216121 -0.49508074 -1.0304456 0.28881463 1.4356717 0.7820124 3.1107259 1.0981035 3.7785208 -1.021658 0.9985954 0.48361576 0.7308638 -1.7128512 -0.889429 2.6467566 1.0254256 0.3053664 -0.04353617 3.46696 -2.5173223 -1.8463861 -1.2258031 0.24609171 0.90414834 0.88634294 1.3682524 -0.6173274 -2.7564921 1.8599288 0.37556198 -0.2273416 -1.7765334 0.07850219 2.09025 2.3804338 -2.424624 -1.6264936 -0.59195125 -0.14790466 -1.7979331 -2.0547538 0.8170448 -1.5405155 -0.70145744 -1.2639405 2.140507 1.1982989 -2.8111851 0.8501638 -0.6083043 3.0093036 1.8255527 1.5848608 1.2377414 1.6226864 0.64613676 0.026561724 -0.3310584 -1.20712 1.7965046 -0.7805497 2.4005089 -0.31947625 2.413702 -0.26381424 -0.05072431 -0.44493774 2.2534647 -0.48000723 0.4258945 -0.96298033 2.8944077 1.9224229 0.49309105 -1.0425206 1.7584758 0.6627252 -0.24189591 0.08693836 -1.1664107 0.393806 0.69533724 1.6525254 -1.8983953 -0.38132516 0.9417361 1.179935 -0.38153064 -2.0603206 2.5290375 1.0199897 2.1477516 -1.1610273 -1.3291947 2.3196702 -0.9173063 -0.27781898 1.0923666 2.6154838 -0.07362179 0.7104153 0.38728172 -2.1026342 -0.13925906 -2.7650506 -0.78276885 2.1134822
ما -0.87983835 -0.06997437 2.9090788 -0.65539813 -0.1434408 -1.0555263 0.9460571 -0.18755698 -0.4666891 1.5359179 -1.3578765 0.7622489 0.26727214 0.24783999 -1.4680991 0.7674452 -1.2148004 -0.8799237 0.38345838 -1.5722879 -0.86935097 0.09210964 1.0150825 1.0400404 0.27006665 0.463979 -0.6667425 -0.25532535 0.29689023 0.5870576 -0.9095072 1.9442812 -0.91503453 -0.94917816 -1.1124506 1.8178508 1.1304476 0.16350715 0.9757146 -2.31928 2.364536 -0.27361462 -0.07112794 2.3472106 0.06366834 -0.55895776 -0.55276066 1.1556576 -1.5447485 -1.8482957 1.8277988 0.49741533 -0.4234504 -0.09432443 -0.77275825 1.6573129 -0.09047121 -0.6120201 1.861252 -0.4154278 1.2132148 0.9141173 -2.853038 -0.8364186 1.106035 -1.3970058 0.25628018 -0.4300744 0.6582061 -0.11651371 -0.16146754 -0.36075184 0.56336075 1.0114634 0.062269088 1.2971036 -0.8291774 -0.69790447 0.9815069 -0.32823324 0.120199636 -0.4612343 2.1210694 0.17869285 -0.8096911 -1.1709348 0.96675915 0.025958937 -0.026501998 -0.07374372 -0.71227324 -0.07287847 0.9863979 -0.3672089 -0.39236215 0.52519596 0.2493291 -0.8780246 -0.95332545 -0.7534021 0.39118174 -1.8153139 -0.5344374 -0.11170375 0.9629557 0.90457726 0.64345545 -1.0937666 -0.13335273 0.9512723 0.2150371 -1.6583338 0.4056168 -0.008180195 -0.8744977 -0.21048866 -1.649224 0.06975439 -1.0749538 1.7665684 0.5674573 0.47024435 0.7936271 0.083818935 -0.34042013 -1.9758381 -0.020916484 1.2906466 1.3626585 -0.5818629 1.328995 -0.05966781 -0.8373001 -0.0122487685 -1.3749193 -0.4786602 0.38165078 0.011979811 -1.101322 -1.0759643 -0.024884049 -0.9254611 -0.93500024 -1.2040132 0.44996777 -1.0893568 2.2606015 1.2043968 0.018828506 -1.5014553 0.26727363 -0.5744854 1.7119792 -3.0426903 1.0098989 0.16818419 0.24268237 0.3051931 -0.7267725 -1.8157742 -0.15051888 -0.007629649 0.46628264 0.7700653 0.10363895 0.16650012 0.22539115 0.98013544 1.0893496 -1.0778267 1.294411 -0.5433562 1.5177556 1.1074502 0.0070667015 0.92371714 -0.3468555 0.08021523 -0.09534258 1.2039568 1.4369874 -0.3245371 -0.68386894 0.6552928 1.0997171 -0.6673771 -0.12197922 0.1961486 -0.24251112 0.98430246 -0.9441414 1.2327247 -0.16673647 -3.0588744 0.44392037 -0.3184331 -1.9480482 -1.5123732 1.3230405 -0.30394796 0.28200457 -1.0439904 -0.6182004 1.37938 -2.1908305 -0.9264667 1.4279838 -0.19110991 2.2022352 0.22793724 0.9939347 0.84166896 0.37568456 0.37814057 2.0384681 -1.2019172 1.1805165 0.2132681 0.38002595 0.6631315 -1.1202227 0.1982478 -0.2456631 0.009590745 0.8499969 0.6096881 0.8671985 -0.1043323 1.1145954 -1.220055 -1.5175233 2.4447775 0.6696117 0.13260455 -0.30536032 -0.6619678 1.3140291 0.230732 -0.4335327 0.6431639 -0.2333173 -1.4474959 1.3963586 -0.8757091 -0.48545173 0.7041457 0.7591963 -0.42314446 1.0179485 0.107587114 -1.2211279 -1.7105104 -0.8422475 -1.2756772 -2.103478 -1.0941885
سلك -0.45092422 1.2106012 0.56851715 0.54191804 1.2276888 1.6459668 2.510601 0.5780763 2.4197402 -1.4259205 -0.41755313 0.03399296 -0.06881269 -1.7621604 0.5780678 1.0288452 -3.269533 -1.6436592 -0.28732643 0.3457817 -1.8544147 -0.87738824 1.5420872 0.27578035 1.117962 0.03322692 -0.35167548 -1.3722863 -0.7397768 -1.6903151 -0.519644 1.6732609 -0.8719428 1.7264202 -1.2181838 -1.8060876 0.00953277 1.0641075 -0.74846494 -0.23506007 0.6239768 -0.78685766 -1.169906 1.6224571 0.54697615 0.03805128 1.8024957 -2.195492 1.62209 -1.1012431 -1.2365813 2.270692 0.9645858 -1.6986892 0.23263432 -1.258435 1.0807554 3.1718204 0.90763026 1.4328287 0.65356237 -0.4764636 -0.78020436 -0.7575714 -1.4992293 0.09704092 -0.4708929 -0.893918 -1.58402 -1.0862552 -3.0772262 -2.113299 2.065821 1.5892534 1.6737943 -1.4614403 -1.5957711 0.75961894 -0.8746107 1.3721555 0.10078931 1.6445934 1.4744344 -0.028368056 -0.8321987 -0.7124245 0.98088545 0.21958122 0.2744902 1.5156094 0.6262356 -2.8578496 0.46679062 0.22874084 -0.7188773 -1.9583553 -3.2189946 -1.0775492 1.8783164 0.45769656 0.18222992 2.0498095 -0.30573618 -1.4064018 3.0960705 -0.5343288 2.1024623 -1.7486407 -1.0726519 1.6717162 -0.5979305 -1.0980574 -1.0288128 1.4415141 1.2846323 0.013180693 0.08850677 1.4395337 -1.5018802 -0.4277197 0.62576044 1.1402963 -0.4320723 -0.59259033 -0.26706553 -1.8498088 1.2182333 -0.4464325 -0.07063391 -0.1571361 -0.71031666 -1.8285481 -3.1694486 -0.5656037 1.8400234 0.6049277 0.3541221 -0.0046812496 -0.98033875 -0.0115741 2.4961884 -1.0692973 0.07695026 -1.8616236 -0.6926348 -4.1544843 0.7604442 -1.0161015 -1.6058364 0.5947485 0.21809539 0.9324192 1.5505751 -0.2881896 -2.245916 -1.1194888 3.3594587 -1.858549 -0.42393413 3.0810578 0.65992814 -1.2322942 -0.6483686 -0.51945454 0.5246478 -0.53063905 -0.25815883 3.4854221 2.0890248 1.7281841 1.0675918 -0.35993904 0.3977302 0.96624136 2.1635609 1.3292294 -1.2367933 0.6526972 -0.54542303 -3.173267 1.378084 0.59941167 -0.15196829 1.2714455 0.29881823 1.4060909 -2.45643 0.74037826 2.5516932 0.009178196 -0.0696498 0.93652505 1.4962229 0.10611783 1.5211788 0.17002445 -1.6230652 0.60937756 -0.53043693 -0.13447952 0.18893695 -1.0849277 -0.12375265 -0.71307945 0.6435444 0.8169807 1.0854055 -2.632927 -2.0980134 1.196312 -0.31188667 -1.0635676 -0.09313908 -0.50079215 -1.9161725 -2.154921 -0.36240724 -2.3470871 -0.159361 0.9773771 -0.53430194 -1.7098687 1.7426872 1.8491976 1.0340579 0.6830085 -1.8906318 0.97675025 -0.51793593 -1.0656471 0.17892472 0.632089 1.4086653 -1.7647846 -0.24665596 -0.12095386 1.5462475 -1.9844102 -1.9340495 -0.55788606 -0.69045377 -2.0043237 -0.6430435 1.3272341 -1.9178623 1.7506332 -2.0339015 2.1290088 0.034073316 -2.2708833 -0.89554125 0.024632188 -1.1924999 -0.43015844 0.16752161 -1.861375
المتوفرة 1.2411928 -0.86741793 1.7643305 0.18781264 -0.46323422 -0.15610693 2.6361008 -1.8036472 -1.9759818 0.32542 0.41663405 1.7160167 1.1819435 0.011846906 0.18008631 0.07040529 0.0843505 0.21533045 -0.08636856 -0.6336527 -1.2351874 -0.5658368 1.1882365 1.2959764 -0.88110465 1.4018915 1.4061565 -0.28177953 0.34909064 1.0084532 1.228882 -0.79272693 1.4609784 -1.8965794 1.6773934 0.6330717 1.7791812 -0.5288762 -0.32264546 -1.3770643 2.501661 -2.3502123 -0.41276297 2.4729059 0.4948006 -0.64148104 -3.0112803 -0.8321684 -3.3173697 -0.42912102 -0.020199573 0.86371356 -2.06548 -1.3696096 -0.31887436 1.3028332 -2.6671338 0.45545796 2.0913866 -0.73719364 0.8285548 1.4264523 -2.8663597 -0.120039366 -0.9554394 0.058168042 -0.44027373 -0.95845425 1.94084 1.310579 1.9995133 0.6990492 0.19980866 1.4441487 0.0030591406 0.6436641 0.65989274 -0.6612857 -1.0997791 1.4829787 0.49183568 -0.16333263 1.0726807 0.08784544 0.15808286 -0.81657904 -0.5834026 0.7166442 0.6555113 1.4299986 -1.8695831 -0.97537106 2.3947847 0.35730246 -2.3048556 1.1525012 0.24081162 0.44224945 -1.3153989 1.6241803 -1.6807687 -1.5817612 -0.32142946 0.9146208 1.5267831 0.5074222 0.15552485 -1.9095433 -0.92166424 0.6295886 -0.94452494 0.31238282 0.9536261 -1.1614068 -1.4959631 2.3546052 -0.96008044 0.025805216 -1.2963123 0.3767505 0.6185849 -0.04894073 2.4026048 -1.0241337 -0.542302 -1.7202051 0.8040755 1.3895574 -0.3401222 0.01786106 0.34487277 0.66405153 -0.20854439 -0.5315536 -0.36164588 -0.9912839 -0.1003361 -0.05966795 -0.31001678 -0.68219465 1.934703 -1.8733194 -0.3790663 -1.9547917 -1.0111727 -0.16043082 1.4552504 -0.5509792 -0.22057782 -2.254971 -1.3389559 0.26985297 -1.1569294 -1.6837535 1.5717609 1.0419089 0.1366102 1.1335613 -0.7157093 -1.8100989 0.33608747 -0.7086375 -0.21681395 -0.3982975 0.41767037 0.81871945 2.8346574 1.5442468 1.6255817 -2.3927522 0.9714514 1.9681704 1.2455046 0.18962705 2.4462087 0.7709274 -0.6900441 -0.92739683 0.7882103 0.21468073 1.3320105 0.6291386 1.8866142 1.6682135 -0.4899698 -2.2684155 0.5391503 -0.31359565 -0.8538781 -1.0984703 -1.3308877 1.7362992 1.2482061 -2.6390767 0.3656079 -1.1789247 -2.393753 -0.3756014 0.98502856 0.5667393 -0.6604361 -0.5804321 -0.18246254 3.116274 -1.6405118 -0.21064064 -0.37915117 -0.040690973 2.4365752 0.3266317 1.6247905 0.16384663 -0.6017765 -0.08544819 1.024133 -0.93526 0.12398907 -0.30535492 1.5216645 0.18670882 0.6919671 3.2374148 0.035182584 0.72543055 0.528118 0.7622451 0.56883514 -1.4819456 1.1871055 -1.8308501 -1.5780395 2.2759597 -0.8257905 -0.17972864 -0.28322768 -1.8374556 2.4031277 1.0532328 -0.87348497 1.0966128 -0.2503371 0.39082137 -0.60031575 1.5170344 -0.8682149 0.34619594 1.3492068 -0.4318453 0.1027278 0.22737868 1.7065463 -0.05769121 0.3756478 0.22388849 -1.7302942 0.045923613
من 1.0624452 -0.08773014 0.59167314 -0.47219253 0.01220823 0.27233064 -0.09893036 -0.7385419 0.42052954 -0.16802415 -0.72033197 -0.64707714 0.0053367196 1.4879545 -0.9403166 -0.75967246 -0.21293753 -0.3017382 0.7204604 -0.96185476 0.29971746 0.50661653 1.0705537 -0.5903246 -0.7319084 1.6731582 -0.60438454 -0.32308942 0.39741126 -0.38274997 -0.90929216 0.5105661 -2.4078557 0.40765703 0.4030685 1.434481 -0.46858487 -0.030441677 0.9236808 -2.0060532 1.3019255 0.5109686 1.0815773 0.696089 -0.8219351 -0.7592367 0.37600163 -0.904024 -0.72600967 -0.44336116 0.54904747 0.7413258 -0.42981362 1.7524205 -0.8863998 1.8533123 -0.34518027 -0.023819558 1.7208596 0.6089238 1.2226 -0.016799444 -0.33673766 0.9888289 0.6808331 -0.61654836 0.37426943 0.69272184 0.81322795 0.18891123 -0.14014322 -1.1059535 0.019956253 -0.5246677 -1.2415617 -0.026619054 -0.47864679 -0.56615126 -0.27221283 0.10637851 0.16163257 -0.072628304 0.5166348 -0.63895047 -1.3130625 0.044141896 -0.76094717 -1.1033831 -0.26942345 -0.5304238 -0.27976012 -1.0396559 0.22160463 0.37748227 -0.40825108 -0.05958502 0.21840028 -0.26371828 0.4045088 0.3984904 -0.35142604 0.3271337 0.7355664 -0.14160466 -0.6222331 1.1560329 -0.3688402 -0.6051983 0.58172345 -2.1743574 0.26914823 0.28088173 -0.82653207 0.28716674 -0.33478236 -0.77968526 0.8380887 1.2293643 1.0111226 0.26624703 -0.05661758 0.43206125 0.041320216 0.26332277 -0.08091569 -0.8021224 -1.3603745 -0.8736645 1.5692662 0.6362206 -0.94486696 -0.4142699 -0.23128441 0.7678097 0.4630202 -0.64907736 0.9709455 0.0416949 -0.266572 -0.90025586 -1.7868422 0.9333238 0.62994945 0.39219862 2.0549438 0.036832877 1.7376312 -0.39060235 1.5681051 0.36385253 1.7614967 0.2942927 0.86743003 0.097374305 -0.7190336 -0.15595192 -1.6973255 -0.020153377 -1.9099163 -1.0474555 0.17561457 -0.37564945 1.8045758 0.01265776 0.32377276 0.0026951148 0.9534155 -0.6664889 0.04428951 -0.43020666 0.5357274 -0.2263493 -0.43365324 -1.0218294 -0.8404394 -0.34500352 1.1913917 0.63703793 1.8117982 1.6627795 -0.78738713 -0.24876745 0.2988809 -1.8229854 0.6636646 1.2277544 -0.20756657 0.08499382 -0.021389704 1.6179948 -0.2380476 0.46568397 -0.15332283 -0.082130976 -0.28286806 0.25621608 1.0667412 -1.3892975 2.512053 -0.16017845 -0.5332037 0.66685724 -0.5839506 -0.19604051 -0.83131766 -0.63312155 0.39107242 1.3915813 -1.3677331 0.5370022 -0.63818806 0.96464366 -1.8282553 -0.13735524 -0.44212428 -0.7159128 -0.3187498 0.7603967 0.63617533 0.3209673 -1.1214675 -0.40450695 -0.6000447 -0.20100977 1.8188103 -0.12640986 -0.6412276 1.3010602 0.31711715 -0.24852611 0.63795185 0.8831192 0.60131115 0.72885466 1.148572 0.138912 1.3780609 1.51514 1.161503 -1.0474463 -0.044268645 0.4622216 0.5721534 -1.2985911 0.084511094 0.8525955 -1.82299 -0.8487453 0.43022802 -0.63169974 -1.0712203 0.3293233 -1.2161056 0.88802713 -1.0397553 -2.729266
توجد 0.3153922 1.1279713 -0.8590069 0.6443825 -0.7346025 0.17764288 1.5711386 0.8837048 0.32046628 1.9930325 0.44229695 1.4736283 0.73594826 0.55918133 -0.15277763 2.149427 2.1054916 0.567791 -1.497875 0.18332529 0.7235395 0.925613 2.1190214 -0.0023503737 0.34434986 0.01804907 -1.201736 -1.80911 1.1412166 -0.81868124 0.7310905 0.46515864 0.47634044 0.13782808 1.2405375 -1.8630177 -1.2282486 -0.6296691 0.13727424 0.5054681 0.20425817 -2.0669365 -0.16527605 0.68860376 0.6929829 0.05597738 -1.9194378 1.5143751 -0.013101309 -1.4084945 1.5960073 1.194516 -1.0738367 1.5048547 0.72679454 0.9538878 0.1023124 -1.5448802 0.9811119 -0.61557347 1.7322985 -0.13174233 -0.24217375 1.4267448 -1.1587954 1.8685968 0.11770912 0.25523522 0.54312 0.90030617 0.5525645 1.7781787 -0.51204705 0.556915 -0.7266193 -0.7482288 0.31054407 1.7461797 -0.39458779 0.510057 -0.7974176 1.3379349 -0.3838675 -0.9956562 -1.8580317 -0.56435305 0.7268494 0.11611662 1.7203223 0.55013806 0.6899491 2.815767 -0.83642656 0.5277952 -0.49143013 1.340635 0.38564336 -0.76830643 0.39623922 -0.5914311 -0.19148934 1.2923425 0.60701656 0.028712437 1.4217232 0.99790436 -1.1507326 1.1151019 -0.007903286 -1.2976531 -1.0857414 0.34782493 -2.0018432 1.502991 0.77928257 -0.29515916 -0.667404 -1.8043776 -1.000966 1.4461176 0.34063548 -1.6174846 0.7156606 0.7228983 0.69833994 0.5882925 0.15077817 0.5801537 -0.22435465 0.656685 0.5853116 1.3591166 0.9151241 0.6089846 1.1055773 1.1365019 0.46295616 -0.9855823 0.67061466 0.72715455 0.8642983 -1.2908722 0.707415 0.074944 -0.62503105 1.3979107 -0.18296139 -1.4292793 -0.22162977 1.3860786 -0.29812998 1.2962477 -0.9676783 -0.05409824 0.7913086 -0.14539555 0.28529534 0.17111222 0.2134974 0.6050986 0.89869875 0.0027420945 -0.26671097 0.12278633 1.5448838 0.14555812 -0.8015716 -0.5953268 -1.0469466 -0.6300294 0.3407888 2.6303437 -1.2381794 -0.63820636 0.22509775 1.4727056 0.4737662 0.68617827 -0.55427194 0.16181743 0.9461536 1.1019841 0.19152412 1.499473 0.13760477 1.6118857 0.70852494 0.34216183 0.39921457 -0.6737363 0.9149223 0.7571808 -0.48228747 0.60847634 1.3798854 -1.7015748 0.2017406 1.6783774 -0.11901617 -0.24436548 -0.44891936 0.010277764 1.2220743 -1.1907787 -0.07105803 0.26260343 -0.8410267 -0.9012432 0.3663117 0.32296714 -1.5138434 0.11687977 0.06760787 0.7081129 0.342919 0.70437795 0.32815453 0.04859162 1.0750506 0.7476602 0.27020955 0.70372355 0.64727855 1.3856462 2.0752077 -0.49299696 0.6283881 -0.71400255 0.35595644 -0.5744025 1.547637 -0.019751934 -0.507821 0.13182823 0.22858395 0.42356703 -0.47621685 -0.4493965 2.3595545 0.690102 0.36771998 0.90183574 -1.9237527 -0.5383688 -1.904354 -0.4076292 -0.6162925 0.44115615 -0.62314415 -0.5810676 1.1815616 -0.61421824 -0.7899873 -0.69949037 -0.8344727 0.68244463
على -0.12954932 -0.33098784 -2.6286025 0.1870187 2.315502 1.4545039 -1.3032762 0.008351945 -1.4439052 0.21878211 2.1471355 0.08935831 0.36646435 0.5971826 1.0145208 -0.8444117 0.36893678 0.83596057 -0.6747809 0.42660737 0.998756 0.6779755 -1.6302923 -0.58934605 -1.0520345 -0.7513067 0.84607 0.14300771 -0.6067518 -0.05566032 0.99087864 -2.1117966 0.18772234 1.3914045 1.3047721 -0.4621706 1.326396 -0.6119654 0.4954187 2.110186 -2.107547 0.072665334 0.085780285 -1.4132614 -0.24709186 0.48022237 0.41863558 -0.19510213 0.48306316 0.28911185 -0.38179973 -2.05696 -0.46888718 1.1836301 1.0645183 0.18366659 -1.2516121 -0.8794609 -0.64458424 2.4582257 -0.008438275 -1.2074158 0.6098419 0.6535475 -1.3960525 1.4914114 0.17345756 -0.51815 -1.2493546 0.6259833 0.395442 1.8503467 -0.16751577 0.12129062 -1.3692737 0.6489906 -1.3076808 -0.96858966 -0.98588747 -0.5940613 -0.4701563 0.05656088 -1.42481 -0.74963844 -0.23805743 0.40643054 -0.5315433 0.2796593 0.7586983 -0.31904888 -0.28536445 0.79439026 -1.3478112 1.0077293 -0.12675346 0.6396756 -0.31216416 2.2736607 -0.97547567 1.7514884 0.7455706 0.26846057 -0.42132437 -0.51523864 -2.238562 -0.9537926 -0.008864755 -0.59626514 -0.6599312 -2.2345243 -0.30039573 1.4410225 -0.56775427 0.08444258 0.6157364 -0.07040778 1.3588377 -0.8967611 0.25586098 -0.25090876 0.36416137 0.14462085 1.8243563 -0.35083583 1.7478571 0.8906527 0.077549905 -0.7354371 -2.1610641 1.4445679 -0.93513894 -1.4352375 -0.684602 2.0416489 0.14795151 -0.39978898 -0.6559444 0.77822244 1.0732467 -1.3909137 -0.58464444 0.43792853 0.87556916 -0.006488142 -1.142727 1.2706022 -2.4541616 -1.147941 0.7646817 0.53903353 1.2557583 -0.08847305 0.4184715 0.18342935 0.36799914 1.7076147 0.76562834 -0.4312912 0.7005345 -0.4368898 0.64669245 0.57626146 -0.4180419 0.94492036 0.42370474 0.40617967 -1.1715417 -0.61601067 0.16023171 0.120044254 -0.6428454 0.52642983 0.27540484 0.15072718 0.6193515 1.074411 1.9514037 -0.6632912 -1.0313109 -0.5083465 -0.05731781 -1.1444572 0.6740038 1.0461028 -2.0527315 0.09907067 0.7091644 -0.41379815 -1.4063177 -0.7423576 1.0775223 -2.270694 0.06687685 2.513087 1.594632 1.8249474 3.285288 -1.2222115 0.27560854 0.37370372 1.5689485 2.0818083 -0.0860109 -1.2825236 0.83364666 -2.0640478 -0.74402803 -0.8897844 -0.37748587 1.077442 -0.97249305 0.88899255 -1.0525842 0.5466907 -0.17892069 0.48796964 -0.016676404 0.6182811 0.37093538 -0.505239 1.5969616 2.1422348 0.0037491058 -0.47940466 -1.1574057 -0.33027706 0.107015744 1.885629 -1.803006 1.7554182 0.71174926 -0.5571589 -1.1366564 0.12248879 1.6847372 0.012672889 -1.0603939 -0.09661439 0.7182641 -1.5398989 1.030254 -0.4970388 -0.24923602 1.9398707 0.82325995 -0.43683034 0.3889419 0.28768355 -0.43533456 0.5669951 1.1596875 0.56478035 0.43206516 1.2111062 1.048682 0.5108205
لسلك -1.2081718 1.0765696 0.36768672 0.08913053 3.0707994 1.3073962 -0.5108406 2.3674324 3.107438 -2.184034 -0.21811351 -2.0326838 0.7104175 0.37972492 2.7960854 0.2724816 -2.4525542 -2.4867938 -1.0165954 -0.30611485 -0.74213797 -1.2584481 -0.21272679 0.7861861 0.34949404 -1.7311141 0.31147358 -1.532499 0.3882919 0.20088059 0.27245232 0.52692777 -1.1537012 1.9612882 -2.3169203 -1.9667734 -0.3517402 1.2807137 1.3119358 1.3094747 -1.4244547 0.07523323 1.0236344 -0.27520552 -0.40719318 1.475527 0.27416036 -1.3201582 2.354652 -0.7170344 -3.2885137 -0.26067847 1.5659512 -0.41991466 -0.22410113 -1.3880991 1.952047 1.6478919 -2.1781447 2.5598962 -1.8399905 -0.5867108 2.0602775 -2.4825916 -0.7827892 -0.08240557 0.5689449 -0.6860573 -0.705574 -0.9197112 -1.7278062 -1.8911388 0.8160522 -0.86225104 0.24166317 -0.59784716 -1.4557719 1.3378416 -0.46385625 -1.4662807 -0.06589959 0.93660754 1.8431818 -0.4556474 -1.1202333 -1.4405985 1.428433 -0.25373566 -0.06679864 1.6913699 -0.696493 0.6248966 -1.5092309 -0.92135394 1.1659337 -1.21617 -1.4071106 -0.4504641 1.024336 -0.316682 0.8362601 1.6504713 0.79749787 -1.2110692 1.3386015 0.19556595 0.06484872 0.13091396 0.30719241 1.4971399 -0.35218304 -0.5981023 -2.3537958 2.369067 0.50730395 -0.4303907 -1.8052725 0.37035295 -0.9958695 0.288245 0.9846081 1.7504684 -1.2026464 0.34352323 -1.7098792 -1.9863414 0.38294086 -1.8551943 1.635256 -0.22698021 0.09651471 -1.8799552 -2.2926605 -1.0819855 0.5149295 1.7908841 1.070054 -0.2552867 0.29144463 0.4850005 2.0734408 0.1880336 0.5310212 -1.6381602 -0.19122262 -1.8308524 0.20204616 -1.3673823 -1.1323036 1.1170778 -0.35276854 0.43232828 0.9404157 -0.7438466 -0.8603258 -0.2604516 1.3255398 -1.3865045 -0.70191723 2.140223 0.6614842 -1.043653 0.3923917 -0.9199853 0.38261908 -0.59644675 -0.38179842 2.1812258 -0.0154623855 1.4471588 1.0341007 -0.3533337 -0.7321539 0.2110962 1.4096042 1.9840814 -1.1770053 0.759245 -0.9331595 -2.4590852 2.3954668 -1.7028606 -0.78642386 0.8786036 0.9618814 3.0234418 -2.434564 1.5777842 1.4881334 0.5113969 -0.12541224 0.80436665 0.50343406 -0.6894675 -0.75940424 -1.2752353 -0.9442549 1.4350768 -0.65972626 -0.041440398 0.21066506 -0.61890805 0.19300343 -0.5125133 -0.62689775 0.3319161 0.6618185 -1.4535007 -1.0858754 -0.41475305 -1.0200361 0.4600983 1.4585526 -0.3509017 -2.008972 -1.1701112 -1.8185734 -0.53567547 -0.41811505 2.0269547 -1.6846577 -2.0855331 1.9266536 0.564519 1.3822111 -0.1937531 -1.4713539 0.08938269 0.23300111 0.077752426 0.2152667 0.60251063 1.5701228 -0.71324116 -0.9823371 0.32775822 1.4764416 -1.8415884 0.16347268 -0.7541804 -1.0690484 0.066640735 -0.32712907 0.019687178 -1.092346 1.0531712 -2.2033849 1.2853717 -0.12366276 -1.6956187 -0.5641016 0.33822745 -2.302108 -2.6334057 -0.17698495 -1.4132563
هي -0.9202498 -2.4756978 0.7051768 -0.5428265 -2.0303094 -0.14381833 -0.22568381 -0.016817655 2.054059 -0.15168418 -0.15471783 -0.91911024 0.9295514 -0.21794578 -0.0855028 -1.1675422 -0.49174476 0.20348644 -0.32437056 0.46213877 -0.13296428 -0.48724553 -0.98361003 0.15929347 0.3075 -2.524383 -0.58759296 1.1162795 -0.8813715 0.032055542 -0.04142572 1.0324554 -0.17253856 -0.28148723 0.23952375 0.5237289 -0.0056913733 -0.48560512 -1.500045 -0.40892106 -0.3269439 0.20326222 -0.56383604 -1.1579876 -0.34208435 0.4451328 -0.87277085 -1.1879971 -0.12222987 0.5467744 0.3977885 0.6581376 1.0765448 -1.8819017 0.2234633 -1.3234929 1.2693377 -0.096084416 -0.5470005 -2.5163698 -1.5604726 1.2421339 -1.3146238 -0.37269294 0.66996 -0.4680344 -0.44060415 0.8917058 -0.48462823 0.209265 -0.24875614 0.4795844 0.48228332 0.5987582 1.2909747 -0.100426815 1.397974 -0.50059104 -0.3726371 0.38789326 -0.7455624 1.0090041 -0.38485572 2.054626 -0.41590765 0.2890655 0.8609541 0.46416754 1.4292053 0.49876368 0.6189934 1.156321 -0.5552371 -1.4374573 0.32270062 -1.5426363 1.1782769 -0.5812659 -0.1499388 -1.0865564 -1.9273251 -0.1934096 0.21547653 -0.07784723 -0.70922136 -0.019983683 -0.23143308 0.14761217 -0.31078804 1.2895685 1.0064338 -1.2693062 0.6702296 -1.042363 -0.067092456 0.70672005 0.91054773 -1.0125048 0.9644102 -1.7986262 -1.8649881 0.70410573 -1.6421653 -0.16203655 0.5620648 -0.33348116 -0.4137495 1.6314864 0.007303367 -0.08374316 0.68061066 1.2960308 1.0535682 -3.0509782 0.55341786 0.56716883 -1.6874304 -0.96227634 0.9135213 2.2793503 1.1135263 -0.051728167 -1.5334641 0.62611735 -0.5216088 -0.2099967 -0.03577844 2.328073 -1.2039572 -0.6222658 -0.90715826 -1.5987144 -0.8792747 -1.6870954 -0.81572026 0.15362296 -1.1075677 1.3551779 0.24909498 -1.1994976 -0.09997678 -0.11708511 0.03203492 0.5764014 -1.0626726 0.6994066 0.17817822 -2.1156328 -1.2103401 -0.90572 -0.70097435 1.9503582 1.24671 1.3922468 0.9092195 -0.10998966 -1.4000595 -0.15403372 -1.941854 0.22338232 -0.36438635 1.0421836 -0.64376724 -0.0979974 1.8879387 -0.58758956 1.0642052 1.9673233 0.8482017 -0.6990648 -0.3631278 -0.63078535 -0.75109285 -0.3189435 -0.29582196 -2.2429502 -1.1620566 0.15414612 1.0948253 -0.7971963 0.16024555 -1.3304963 1.4813964 -0.79066736 -1.1378795 0.38585463 -1.1291118 0.52595377 0.9360435 -0.07937643 0.060393687 -2.3808222 1.4592581 0.0675271 0.65279335 -0.106251046 0.12626229 -0.090691894 0.8547179 0.65763104 -2.134083 -0.13089721 0.050266806 1.155158 -1.0438013 0.2552708 0.7229518 -1.293245 1.1635967 -1.3458668 0.19567232 1.3660032 -0.21591927 1.8460827 -0.10225308 -0.42721376 -0.17597857 0.6531018 -1.5542886 1.6138568 1.1555142 -0.82675403 -0.49851578 -2.2410693 -0.19741611 0.8421744 1.1397421 -0.4884172 1.2764351 -0.76821756 -0.26814833 -0.81986403 1.1306609 0.014963981 -0.08670503 0.6423474
التقنيات 1.8468853 -1.122941 -1.8525133 -0.32517412 -1.5728832 1.4658359 1.4540504 -0.116076976 0.6589314 -1.7491417 2.031307 0.39048848 1.5587159 -2.1512153 0.96880066 0.3501496 0.23597562 -0.28947583 -1.9178778 1.8773742 -1.9681989 -0.7757126 1.3455825 -0.41020688 -0.9085235 -0.30540642 2.4345882 0.2366351 0.35514998 -1.1359385 1.7104697 -1.1069381 1.3122926 0.75862384 2.5307565 -1.590852 -1.5247058 0.32180935 -3.7601676 0.060039863 -0.20050138 -1.1068189 -0.92300797 0.620101 1.1715032 -0.85633403 0.11330202 -1.0473776 0.2760827 1.8438507 -0.90017426 0.3227848 -0.0065878434 -1.1332036 0.70862305 -1.6389887 -0.17018951 -0.13342555 -0.13030778 -1.8079511 -0.65537256 0.7834799 -0.06832816 1.5198747 -0.25766435 0.7214263 -0.04404593 0.2500765 0.43312865 -1.1702851 0.59991 1.1290389 0.29615185 -0.31404403 1.8226435 0.20668556 1.7769823 0.09237324 -1.4417223 2.484819 1.0654377 1.9104453 -1.2329545 0.53708196 0.4776116 -0.2635006 -0.46792284 -0.7110081 1.1035379 -0.055493236 1.3138771 -0.15655898 0.7404923 -0.8298846 0.7785739 0.7015879 -0.53744096 -0.44396082 1.7045404 0.75360453 -0.5649225 0.7218184 -0.9668808 1.9516218 1.4592472 0.3758771 1.4234887 1.6773686 -0.37518308 2.1706154 1.012097 0.6248975 0.33478037 -1.0917747 -0.13810061 1.5766504 1.659006 -1.6746138 -0.17413637 -1.4064064 -2.5763946 -1.1277367 -1.3200346 -0.5674547 0.82734096 1.1926647 -1.5158002 2.1822696 -1.3816235 0.5839077 1.589527 2.169292 0.39702806 -1.0594491 1.286855 0.813422 -0.22791556 -0.7419689 -0.4576386 2.0906243 1.4837679 -0.6076378 0.82602817 0.5308787 -2.1603038 0.8693474 -2.0985196 -1.0205613 -0.80741477 0.52515453 -1.5037963 -0.17950377 -1.4662626 2.3491104 0.19054425 -0.74598056 1.7335641 1.982277 1.7371938 0.956505 0.88167435 -0.53884864 -0.23449506 0.05662416 -1.2293988 0.99056333 0.73948485 -1.4526486 -0.93530774 -2.7028708 0.08964193 2.7811706 -0.60008395 0.005043552 1.6922566 -0.10656133 -1.6856246 0.174776 -0.16391207 -1.7789588 -0.9075559 1.0204016 2.3161573 1.3165421 -0.86132324 -0.68535197 0.3825907 -0.094750755 1.3262405 -2.4932618 0.44463992 0.1485306 -0.31696892 1.59193 1.8684086 -1.2152992 -1.6564755 3.0868087 -1.3334644 1.3513836 0.6099995 0.16304666 2.055268 0.90975076 1.4503884 2.669877 -2.5461712 -0.23756838 0.48715016 0.06450626 1.030905 -2.7246435 0.32851082 -0.7427217 -0.4297433 0.7705024 1.3728021 -0.28847647 0.6226557 0.4120011 0.18472457 1.4976043 1.2764517 1.9561293 -2.2053246 -0.1629929 -1.1683842 -2.0851796 -0.072709374 -2.704774 0.5664073 -0.7346145 -1.6629674 -1.9737446 1.8494349 -1.0049837 -2.2902143 -0.0383214 1.4586082 2.4092288 -0.4209732 -0.36438954 -1.6916964 1.3363115 -2.4604475 -0.190616 1.3436909 0.1699989 1.2509077 -0.79044694 1.9986497 -0.3916775 3.727471 0.08845576 0.5924272 1.7812018
هل -0.018686265 -0.5601547 -0.9623246 -0.47304034 -1.7214068 -1.4888403 1.7601335 -0.33511868 -0.0102251405 2.2288103 -0.124477014 0.37782866 1.5629045 0.7788837 -1.4290992 1.8655294 1.6771312 -0.08276964 0.39098087 -0.8764016 0.5581266 -0.3514516 2.2202902 -0.48398036 0.7447441 0.9856721 -1.5544784 -2.0496836 0.9409919 0.27943277 0.40118378 1.1221772 0.18700545 -0.7803303 -0.032789387 0.32459188 -0.36798164 -0.3434376 2.0086238 -1.9633878 1.404077 -0.9684866 -0.0513188 1.209222 2.2182236 -0.85113025 -0.60920095 0.51081437 0.46863538 -1.5853573 1.9982003 0.67258346 -1.3396803 0.66721207 -0.029878575 1.2491151 -0.7293829 -1.7006595 0.5585881 -1.1094422 1.0997293 1.7749667 -0.70859426 2.3196468 -0.26378185 -0.25667658 0.47587273 0.060475312 0.09967611 -0.46342984 0.38079923 -0.11786347 -0.14881974 0.11102358 0.0027841786 0.10129408 -0.6788907 0.31372043 0.49509907 -0.51477265 -0.6452912 0.2568339 0.5738894 -1.1179665 -0.008507812 -0.46715856 -0.4925694 -1.2282413 1.064815 1.0812799 -0.5749645 1.7892755 -0.19721885 -0.36847705 0.9157478 -0.18279892 0.7527922 0.5568523 -0.7664222 0.048070356 -0.30678484 -1.269808 -0.36412245 -0.10480964 0.2712483 0.012289673 -0.02019408 -0.6249995 0.89000833 -1.3085598 -0.26112324 -0.6745346 -0.9084015 0.5921452 0.40539685 -1.0020823 -1.1121516 0.63547695 -0.24998036 0.17474473 0.36951366 0.21620849 -0.15739936 0.59935254 -0.94118625 0.03174793 -1.1834699 -0.22662844 -0.77465117 0.529622 1.6679132 1.3576478 0.4556523 -0.28691918 0.97644174 -1.1901717 0.024243921 0.0080867 0.8679951 0.62729174 0.7215743 0.2205601 1.1531214 -0.35235104 -0.11969062 2.063857 -0.7598601 -0.8461581 -0.48427922 -0.6084104 1.0530496 0.22427645 -0.36189368 -1.0418944 -0.7130443 0.4393099 -1.099862 0.29103652 1.1528176 0.45125175 0.71086323 -0.06575876 -0.1431898 0.37063393 -0.28138843 -0.37853822 -0.23778512 -0.025232324 -0.6648157 0.0067720967 -0.16347365 1.2602606 -0.62549436 -0.5385211 0.33987176 -0.856675 -0.024648953 -0.52232784 -0.6645988 -0.9013398 -0.40210512 -0.8811105 -0.86976105 0.42775804 -0.8174323 -0.9690889 -0.06629626 0.25081667 -0.87900686 -0.43135333 -1.2604152 0.51169527 -0.8429337 1.031954 -0.1940851 -0.27399373 -0.3193461 -0.5519787 1.2309846 0.2436281 0.32692555 0.90494555 -0.32705534 -0.74674946 -1.2509943 -0.5382669 -1.5920889 0.8596469 0.14177711 0.031687886 -0.95663637 0.35461614 -0.761313 -0.81607515 -0.32227224 -0.057057455 0.65507585 1.9593157 -0.5201204 1.2567921 -0.040011536 0.21583451 -0.33498254 0.37940562 0.7855959 -0.32591343 -0.4111539 -0.05573385 0.18812938 -0.63292664 0.53244364 -0.68927616 -0.34817803 -0.9398681 -0.38618398 0.283105 1.0850756 -0.9061272 1.709782 -0.5341118 -0.9029269 -0.7312189 -0.010336268 0.18868926 0.009543381 0.25360653 0.41870296 0.2639864 -0.13242146 0.6320716 -1.0868106 1.8640928 -0.24589922 0.25677913 0.2934204 -0.5836082
الهندسة 2.675514 0.89974165 0.42711642 1.6278014 -0.37603953 0.4624993 -0.18126866 -1.394786 -0.3468221 -1.5280465 0.9943343 0.022562468 -0.03279871 -1.0787688 0.1593675 -0.48918092 -1.0602638 -0.13796791 -0.8088458 1.4516225 -1.4242322 -0.017921107 1.4950476 0.03569264 -2.01669 1.2234889 1.6003691 1.7841859 0.0034627903 -0.62069774 0.3950912 -1.100332 -0.42941746 0.51889277 1.8585888 0.19733767 -0.22741055 -0.44188702 -0.7582308 -1.2240517 0.94783103 1.1460829 0.5485823 2.402091 0.39908746 -0.81458986 0.3059241 -0.5402266 -1.289224 -0.69376564 -0.03570709 -0.046802115 0.5072764 -0.001041111 -0.34023476 0.6502707 0.4154302 -0.21370812 0.6555253 -0.12715648 -1.2259475 0.4504185 0.32438502 0.31723136 1.135424 -0.4314305 -1.3061533 0.8153326 1.4439691 -0.2309986 0.069350325 -0.2507527 1.0846969 -0.41555065 0.26496533 0.595346 1.0649985 0.33568278 -0.38424104 2.3995059 1.8060051 0.91079885 -0.62857294 0.910238 -0.8200803 -1.113691 0.61145085 0.34767807 -2.1770985 -0.4939839 -0.6194848 -1.5167996 1.1797079 -0.4712298 -0.6061818 0.81636715 -0.007067869 -0.893629 -0.1557623 0.8529067 0.26516485 0.28230682 -0.6429893 1.0615768 0.2215469 1.7051083 1.6213182 1.4108301 -0.75064415 1.3288689 0.26392853 -0.8103883 0.49480835 -0.7583053 0.16925879 0.23819837 0.37372655 -1.1146939 -0.45235723 -0.26013175 -2.0416405 -0.07622385 0.38546053 -1.0257174 0.17436174 0.3207884 -1.051909 0.30286464 1.8313327 -0.68832463 0.32296926 0.5524625 1.7346243 -0.428629 -0.6606162 -0.96213484 -0.31698424 -0.14924555 -1.2190591 -0.5335003 -1.9052745 -0.36032158 -1.1848803 0.7273978 -1.8505883 -0.85857046 -0.017947273 -0.04962259 -0.15574782 -0.48417446 -0.6838509 0.25354734 0.3775389 1.5093325 2.0443861 1.0042124 1.4639837 0.9055561 -0.89097923 -1.2090796 -0.5626635 0.5111218 0.13725723 0.3330818 -0.10166823 -0.32793042 1.3222479 0.30504513 -0.6978232 -2.3639038 1.0112195 -0.0025723707 0.9464838 -0.09093701 0.7378454 0.34449813 -1.7746836 -0.24814299 0.52809346 1.1592112 -0.78611684 0.48709655 1.0571529 0.60321736 0.056197405 -0.8610558 0.35593697 -0.26792488 -0.8087813 -0.46861777 0.16761582 0.8172251 -0.89779514 -1.243293 1.0786737 -0.18664184 -2.5374768 0.5488303 0.4992888 0.4517219 -0.13679357 -0.24676548 -0.5412449 1.6458623 1.1905769 0.17011297 -0.34759977 0.7562222 1.159386 -0.2806472 2.1703634 -0.71933776 -0.26117146 -0.63476473 0.5455145 0.42281333 0.15780944 0.04434724 0.37418652 -0.7097141 -1.2052993 0.12819467 1.0846915 -0.71006614 -0.48117796 -0.56482196 -1.1348698 -0.54035795 0.9887757 -0.40708202 -0.37540203 2.2362018 -2.0338004 -0.023339884 0.074017845 -0.83065593 -1.2142102 -0.21212645 0.852828 0.5303371 0.44194877 0.73926103 0.82586694 1.417566 -0.15439782 -0.5281653 -2.0582576 1.252647 -0.26665777 -0.8851203 0.81959903 -1.5811949 0.9290451 -1.2190833 -0.9402421 0.2825721
المقاعد 0.13285065 -0.9468585 1.7404618 -1.9822253 -0.49374482 -1.1492268 0.91028786 0.372885 0.32004333 0.59458137 -1.7312713 -0.23945238 1.1005028 -0.41655278 -0.54018307 0.109147295 0.19479561 -0.41434753 -1.2063636 -0.47545555 -0.11572104 0.87353367 0.035289206 0.31448913 1.0007186 -1.2225991 -0.23072292 0.32689172 0.37437114 1.1696928 -0.57908696 0.24841477 1.277744 -0.5747316 -0.90356106 0.24270234 0.014028439 1.3647337 -1.6514238 -1.1427516 0.4777895 -0.65825284 -0.68366444 -1.3442932 -1.3084087 -0.8109825 0.3710623 0.9060292 -0.34973773 0.93762153 -0.006581139 0.8318051 -0.32548624 -0.5952937 -1.1468744 -0.42812794 0.8534482 -0.68782556 0.0098130945 -2.222742 0.23554635 0.08371178 -1.5736256 -0.07716131 1.5838532 -0.004275738 1.3708798 0.0047411826 0.36899236 -0.8644898 0.478397 2.0039926 0.13547698 -0.37558922 -0.3316178 0.25997284 0.85423034 -0.7049621 0.13802075 -0.43913198 -0.785541 -0.36446851 0.27397063 -0.14043559 -0.011782201 0.17071848 0.3043007 -0.3332874 1.712628 -1.365256 0.14314543 0.020679697 0.12511563 -1.662495 0.51089185 -0.060684167 0.44226483 -1.0928655 0.29368713 -2.3744185 -0.020435574 -0.87653583 -0.41565394 -1.0312744 0.5529412 0.093410954 -0.12887113 -0.4532168 -0.8903177 1.876382 2.908986 -1.1813956 0.6396689 -0.3526016 0.07963827 -0.018361252 0.08063572 -0.20642714 -0.13907476 -0.25201192 -0.9376585 -0.12923954 -0.5771764 0.11739546 -0.23959713 -0.2718157 -1.0641987 1.0590965 -0.3384792 0.44758707 0.6669571 1.1272123 0.38105845 -0.5383912 0.0691935 0.37241325 0.41272622 -0.9181194 0.35188198 0.68734646 -0.80652755 -0.660133 -0.37984318 -0.11077497 1.1689191 -0.78624046 0.87357616 0.90209913 -1.369374 -0.73213434 -0.7523123 -0.7678709 -0.032708004 -1.9939837 -1.1704501 -0.31768486 -1.2848328 -0.15115635 0.49071768 0.14045598 -0.31516266 -0.47891623 -0.31120902 -0.46507502 -1.7063888 1.1905215 -0.15604307 -0.87332207 -0.09609951 -0.15138346 1.0005667 -0.10153692 1.2009513 0.81026465 -0.7920738 -0.93803996 -1.612674 0.35358888 -0.0974425 0.5702612 -0.14286181 0.3817075 0.72809345 -0.89913946 1.2131866 -0.77812296 -0.113203175 0.06766658 0.70509875 -0.31622735 0.099130794 1.0101739 -0.6324273 -0.75677633 0.618984 -0.9025343 -1.0540167 0.3889208 0.3347362 -0.709746 -0.8586604 -1.1899619 1.1688186 -0.19691111 -1.929562 0.44803315 0.09749104 0.950108 1.4351568 1.0296503 0.16903861 -1.8146181 1.415164 0.95516294 1.544924 -0.34172767 1.4753971 -0.8627524 0.5711309 0.35755298 -1.1255432 0.11554793 0.2656774 0.641748 -0.29877013 0.11159783 1.4516861 -1.1789062 0.9039079 -1.018425 -0.2564459 0.58081186 0.40784588 0.6470725 1.1606982 0.50607973 0.8808624 0.40714443 -0.5406762 1.9210159 -0.5754466 -2.0097811 -0.057497945 -1.7849514 -0.78189284 1.6642373 1.5397526 -1.970867 2.43955 0.0017752241 -0.82687163 -0.4373659 0.8970885 -0.34212402 -0.8889151 -0.0029007015
لا -1.0628916 -0.7792819 0.118944325 -0.8415496 -1.8478589 -0.9616506 0.84583735 -0.030789567 -0.48443714 0.04577081 -0.14238383 -0.5847098 0.8256385 -0.49061933 -0.35190976 -0.52897376 0.15887958 -0.66962945 1.1329527 1.0045125 0.5510321 0.3332598 0.09278557 -1.3228168 -0.36986095 -0.38568944 -0.33280313 0.29454434 -0.5689601 0.38610336 0.41294363 0.041794665 -0.7629631 -0.7679839 0.06743836 0.3112268 0.20710061 -0.7692715 0.06374375 -1.2929436 -0.07790649 -0.59541124 -0.38515082 -0.9885186 0.60986555 -1.1566781 -0.40143543 -0.06564859 -0.5164677 0.37611055 1.2498664 0.8150134 -0.4760279 0.25440243 -0.5699219 -0.05646121 -0.05596747 -0.5123514 0.26491648 -1.104937 0.64280504 0.17292544 -0.81409043 0.5629672 -0.53327584 0.73009187 0.02085619 0.893332 0.03438027 -0.41465178 0.45486295 1.0133517 -0.44270962 0.30321836 -0.2661488 0.09232169 0.38420004 -0.14350145 0.051929466 -0.7404638 -2.0276802 -0.16685846 0.71927893 -1.1023959 -0.7872406 -0.10971762 -0.46459737 -0.5982803 1.9250495 0.8298941 0.25993896 1.1512067 -0.5409578 0.30884957 -0.54901963 -0.17912452 1.1212596 0.6583117 -0.9204365 0.8165103 -0.7921855 -0.34726906 0.37165704 -0.5158122 -1.287487 -0.33994806 -0.0055831005 -0.7779631 0.2821186 -1.9588498 0.15327705 -0.21175374 -0.3015833 -0.59000045 0.8494633 -0.260286 0.25224593 0.40273175 0.58879876 -0.65709424 0.0718219 0.32035235 0.009439318 0.51172554 0.30482182 -0.51963687 -0.4817337 -0.39374372 -0.7713317 0.4066046 0.28280014 0.21329042 -0.4324359 0.7538788 0.33760256 -1.4433045 -0.49308887 0.18781787 0.59714127 -0.23958221 0.5598673 0.43391156 1.4240099 0.4433936 -0.61904585 1.178861 -0.7403348 0.29160267 0.8409063 0.3683868 1.4712913 -0.35524607 -0.41084117 -1.5786146 0.046044838 0.74436575 -1.3274521 0.8903707 0.4200047 -0.4881059 0.6627781 -0.37387863 0.9141741 1.6409619 0.48353016 0.4229335 -1.2168013 -1.2156955 -0.7164548 0.14939256 -1.33419 0.5037609 -0.10577801 0.69149655 0.14337869 -0.95873743 1.0333396 -0.26762012 -1.2651576 0.80029047 -0.67521226 -0.10605352 -1.4297028 -0.43295714 0.3350986 0.2710668 0.6540309 -0.24964304 -0.54369026 -0.57008445 -0.20906936 -0.8188366 0.0118402215 1.1306223 -0.40076277 -0.34594607 0.30883577 -0.6036328 1.4537014 1.2645142 0.054752674 0.7434413 0.65372604 -0.79615366 -0.58862996 0.38624582 -1.1195872 1.0373427 0.41912788 -0.082897864 -0.968998 -0.02410449 -0.8070135 -0.19171096 0.34530684 0.2914156 0.5440937 0.33622655 0.8262584 0.31497025 0.7696236 0.32022953 -0.8567403 1.1149925 0.2818456 0.2612191 0.16226958 0.30879855 -0.72559637 -0.26393592 0.8119548 -0.11878496 0.48285627 0.33361617 0.47432357 0.6643217 0.89212835 0.35501775 0.063403815 -0.53365386 -0.003095262 -1.0351357 -1.0860173 -1.0716087 -0.21404475 0.019997204 1.2363645 -0.8983276 0.20373298 0.4935905 -0.9465484 0.8674788 0.0049507036 1.3680474 -0.10441152 -0.13250118
المسالك -0.34130114 -0.27866548 2.1062665 0.6543025 -1.8448454 1.039062 0.38651285 -1.0891933 1.3146927 -0.26124907 -0.45600525 0.015928168 -0.17961644 -0.7551705 -0.7092258 0.3812191 -1.4374256 0.1344034 0.96617305 1.3860039 -0.3284733 -0.93675286 1.1290474 -0.1379775 -0.27467078 -0.20874622 -1.3970782 0.44428748 -1.9102827 -0.92373043 -1.3323073 2.7539718 -1.2055867 -0.8662023 -0.052192952 1.545537 -0.18476397 -1.0612333 -1.3928083 -2.759572 1.7518332 -0.7012289 -1.1327897 2.281797 1.6227465 -0.61119425 -0.042557996 -0.4793614 -0.3963974 -0.48514473 2.759703 2.2805333 0.84120923 -0.8638302 -0.69555956 -0.5424203 1.3408601 0.78215194 1.4361054 -1.9934025 2.153135 0.21799804 -2.3263302 0.7844878 0.75287026 0.1368912 -1.4481391 1.4340782 -0.27267462 -0.37970862 -0.9923056 -0.8811967 1.4009769 0.915231 1.3278484 0.8809323 0.009864573 0.81440526 -0.52850586 1.2605423 -0.23263924 1.7339109 -0.09639178 2.6074893 -0.9514154 -1.0469884 1.8253369 -0.29293546 0.5524115 0.8178147 1.2247281 0.00395927 0.18804313 -0.28418386 -0.8987417 -1.655666 0.24083138 -0.29319823 -0.43351072 0.71278685 -1.890705 0.18827088 -0.11023639 -0.39790624 -0.31479877 0.67237353 2.297112 0.053656433 -1.3495511 1.2281064 -0.29937503 -1.6781272 0.52296716 -1.361163 1.326032 0.20359506 0.9087709 -1.1869371 0.09602558 -1.4076912 -1.6837854 0.83714706 -0.796212 -0.11155647 0.2738462 -1.868534 0.053064708 1.4468374 0.825096 -0.9409716 0.25550896 -0.41149732 -0.4241714 -1.4010924 0.42142427 -0.63788414 -0.8248568 -0.6939713 -0.116555706 1.1890609 1.2023089 -0.023371167 -0.26672393 1.2276957 -1.8233762 -1.82988 0.0072856285 1.0462863 0.19095573 0.52044845 0.4175799 -0.48806116 0.47272316 -1.3563203 0.5047353 -0.8213478 1.0228152 1.11318 -0.9793902 -0.7994719 -0.4329095 0.2131851 1.3938913 1.9905903 -0.19365531 0.14887871 -0.1153357 -1.1256788 -0.08685173 0.04291869 -0.50894386 0.6627575 0.86418164 1.7378857 0.41796985 0.48163924 -0.75697947 0.05434191 -2.599419 0.7873291 0.5519615 1.369219 -0.8302689 -0.03403666 1.5524281 -0.14552175 0.32655475 1.1421492 1.3081121 -1.2207038 0.20761408 -0.084270634 -0.30114198 0.38218144 1.1514643 -0.9091213 -2.3217597 0.21898401 1.2765827 0.22115073 0.43330052 -1.3673239 0.26434278 -0.100175664 0.9060709 0.76213586 -0.32407433 0.28761813 0.18576972 -0.023212198 0.9033869 -1.7099354 -0.12827931 0.21643947 0.8559017 0.21155746 -0.6984716 -0.5462135 0.4066842 0.56276095 -1.2408947 -0.8850433 0.4204679 1.1317502 -0.5463106 0.5818766 -0.119269885 0.26609442 -0.17589273 -1.1600468 -0.5359958 2.935465 0.16882715 0.42930135 -0.5324465 -0.5882207 -1.4287322 0.23595232 -1.2913996 0.42976138 1.168102 -0.9066855 -0.29582787 -0.9870614 -0.5471123 -0.42473298 -0.39942056 1.2042993 -1.0393158 -1.7955211 -0.5610597 -1.9005989 0.40160492 0.087385274 -0.75024223 -0.08410773
للتكنولوجيا -0.45456472 -0.18288623 -0.2850526 0.22522956 -0.45599976 0.042690556 1.5109134 0.72155744 0.38590935 -0.613763 1.3619717 -0.8135352 1.7442979 -1.5816134 0.9088873 -0.59822416 -1.3026509 -2.3453739 -0.97624856 1.838263 -0.7474923 0.285471 2.195881 -0.18980657 -1.2861451 -0.57863045 1.7025307 1.0951656 0.037808556 -0.29000902 1.47941 -1.897745 -0.4400793 0.67421585 1.9141039 -1.6887119 0.16345699 -0.74240786 0.5193356 0.42717648 -0.71681434 -0.18197627 0.63904244 0.61397696 1.7152101 -0.45641857 -0.2792172 -0.625925 -0.9720681 -1.454668 0.76752067 -0.23053378 -0.5974072 0.55221105 0.077803984 0.66761327 -0.0873143 -1.207622 0.7839863 0.70889395 -1.0696336 0.8452691 -0.5797484 -0.71078956 -0.74344003 1.3822101 -0.44326478 0.08809383 0.6699834 -0.4331413 0.1645947 0.2330998 -0.13351896 1.4463104 1.5315461 -0.6881661 0.589572 0.32265648 0.06579046 -0.13574146 -0.018541344 0.5648468 0.9118705 -1.5824748 -0.99837166 -2.1569517 -0.41459885 0.22937244 0.45833144 1.483949 -0.76686853 0.71580166 0.06518517 0.034674786 -0.26595762 0.29885158 0.087746106 0.21451572 -0.3951051 1.2117434 0.49704745 -0.47307423 -0.19762667 0.027075473 1.2753739 1.2154657 1.6878794 0.13796633 0.60721976 -0.23275532 -1.3504393 -0.46754763 -0.81709087 0.066266276 0.48754588 1.131753 -0.7693382 0.5728399 -0.49982032 0.3021423 -0.19472517 0.24203834 0.03797142 -0.9505729 0.5762227 0.1554762 -0.5774154 0.022810685 -0.30588734 -0.025518233 1.280074 0.65449536 0.83963794 -0.6727529 0.17314456 0.03454265 -0.86095375 0.11259678 -0.18267135 -0.5093526 0.8021855 -1.3187289 0.54310995 -0.40971324 -2.4004197 0.48974583 -0.21634977 0.014766867 0.3682553 0.057260536 0.4506383 1.0307591 -0.58629185 -0.14122309 2.4404428 0.31805983 1.0933075 0.20229559 1.0588076 -0.4352483 -0.14461657 -0.6817635 0.028567346 1.2107781 1.7453841 -0.24089618 -0.24763459 0.7980267 -0.17193641 -1.7697992 -0.00185064 1.242236 0.13612771 0.36543927 1.9865295 1.3303355 -0.24813959 -0.060900465 -0.67084086 -0.6733957 0.5583126 -0.11791257 -0.24955785 2.1190631 -0.5188377 0.24423783 0.6142631 0.13416913 -0.97222036 -1.5196233 -0.3283814 -0.6941628 -0.053922392 0.26180536 0.19995739 -0.4057716 -1.4075366 0.32049495 -0.025608579 1.5476979 0.18714932 0.7871076 0.76861787 0.7588924 0.13058959 0.79048455 -1.9201034 0.34572053 1.488781 -1.2930491 1.0033692 -0.6079366 0.14406893 -1.6793302 -0.028287768 -0.88134885 0.5333806 -0.4367091 0.24469301 0.10603953 0.3379154 0.6317223 1.3381865 -0.05399478 0.084986106 -0.024495997 -0.67224455 -0.5837582 0.754774 -1.0163603 0.7029743 0.34350902 -0.7326829 -1.2748138 -0.081054576 0.56694996 0.4516884 -0.47436014 1.7823087 0.3796283 -0.07658222 0.40957144 -0.33410445 -0.053932097 -0.4438665 -1.0115691 -0.14296307 0.42106482 -0.08786777 0.38136253 1.568425 -0.46779856 0.30933136 -1.3046249 0.34288803 0.6506618
بمدينة 0.39898205 0.43662935 -0.029501168 0.7774292 -0.15251222 0.7283576 0.96669525 -0.78140754 -0.41237167 -0.8342601 0.07888598 0.46554962 0.84671515 -0.7215997 0.89703554 1.1972597 0.41127232 -0.4800163 0.065843776 1.2806445 0.2820989 -0.35059103 1.4082239 0.4514147 0.35982105 0.57303905 1.100961 -0.63055545 0.04643614 -0.06593434 0.5494065 -0.37987712 1.1614847 -0.8136799 1.3302674 -0.62222946 -0.5748857 -0.20879668 -0.5310484 -0.24563833 -0.12488726 -1.5356984 -0.6127701 1.7512821 1.2554706 -0.11445658 -0.8020382 0.47777498 0.17291962 0.42577857 -0.36762846 0.10740337 -0.55106574 0.3698264 -0.4638539 -0.8423328 -0.19924185 0.06407411 -0.50287056 -0.41399553 0.70395553 0.2360463 -0.014244973 0.6198124 0.28562602 1.833549 -0.829225 -0.10764792 1.2362924 -0.5710056 0.4908907 0.9591472 -0.044117805 -0.20653714 0.7074264 0.05271185 0.8158674 0.9676199 -1.2060872 -0.3439481 -0.11980567 0.15899222 0.23012966 0.09320442 -0.18157047 -0.6475283 0.3921131 0.15798597 -0.30412912 1.4537754 -0.71162516 0.146831 0.43603003 0.10538557 -0.5307398 -0.21080978 0.15215883 0.4088217 0.33657557 1.0781398 0.055491254 -0.23391205 -1.218769 0.014378917 0.6914321 0.26928878 1.7276809 0.37574688 -1.7332374 1.4896389 0.29897755 -0.2401616 0.68762493 -0.51859254 0.20768821 1.7630422 0.18178727 -0.30926138 -0.56774306 -0.558651 -1.0235035 0.564344 0.30730847 -1.07028 -0.16744027 -0.09099205 0.3257094 0.3291899 -1.4691247 -0.050678026 0.76572216 0.34753174 0.45085976 -0.39725527 0.72912925 -0.6864492 -0.25055057 -0.1855987 0.752079 -0.177517 0.5035674 -0.36531088 0.73194635 0.017584259 -2.5622807 -0.78342384 -2.0283785 -0.28216565 -0.38488346 0.039108396 -0.6363708 0.51698107 -0.93878144 0.7791744 1.2242007 -0.69032645 1.6440142 0.07958436 0.40223807 -0.31468904 -0.6679637 -0.9726023 -0.23049387 0.13172504 -0.18458152 0.55372494 0.77936053 0.965675 -0.031651374 -0.18648472 -0.24428417 0.89564747 0.3377867 -0.27355725 1.4334859 0.05933387 -1.0311855 0.037080534 -0.5311118 -1.0835378 0.6461946 0.481554 1.1699628 0.09966682 -0.5555647 -0.5706525 -0.09761136 -0.100579716 -0.32530868 -2.439472 0.15928544 0.3036982 -0.64190245 1.2784758 1.7135361 0.29472053 -1.053496 1.2944722 -0.77662677 1.3417785 -0.27680156 0.4974508 0.4976251 0.5407613 0.7635912 0.9388741 -0.6422294 0.127235 0.9293876 0.21116821 0.9815554 -1.3252417 -0.13170613 0.49802148 -0.20437798 0.43790048 -0.10492424 -0.11683948 0.2473921 -0.19459641 1.2651473 1.6409672 1.1619512 0.2749256 -0.28102526 0.878012 -0.2056236 -0.7222991 -1.1223518 -0.19204928 -0.0024813127 0.22619028 -0.5807383 -0.94956875 0.20165208 0.18244675 -0.8940446 -0.45845544 1.1368426 0.30576164 0.1898345 0.031575162 -1.5432295 1.4691043 -0.17420225 -0.49872467 0.8966943 0.7882664 -0.56090957 -0.29905623 0.91313165 -0.0027018331 1.4546057 -0.004098675 -0.40335178 0.79464334
كلية -0.058193155 0.17285244 -1.7019424 -0.09749189 -1.2337576 -0.46586537 0.7852666 0.7399788 0.52354026 -0.7694519 1.0183429 0.028264862 0.32032624 -1.2493464 0.20086645 -0.19467606 0.44612068 -0.30259576 -0.41117555 1.127646 -0.69444746 -0.37021413 1.1632292 -0.38463035 0.041557923 1.0175837 0.9869911 -0.08955512 0.4262039 -1.0433091 1.4526289 -0.94471675 0.4160444 0.16977607 0.9611432 -1.1071664 -1.37651 -0.07935655 -0.7401078 0.62813276 -0.23881674 -0.79177886 -0.47772062 -0.6572617 0.1961109 -0.18229054 -0.21411194 -0.18816465 -0.12971762 0.95263964 0.36270013 -0.059495468 -0.6110153 -0.19552198 0.15722807 -0.9125189 0.08323048 0.10547236 -0.58670706 -0.36500004 0.22152309 0.4798821 0.14585164 0.37867543 -0.4773677 0.40021682 0.21627384 0.31666037 -0.26559237 -0.8624524 0.63428605 0.3620234 -1.2723032 0.06261962 0.3085887 -0.07633661 1.3238516 0.61644816 -0.22706228 0.7180717 -0.43712768 0.57571447 -0.3761465 -0.418599 0.09418252 0.32802024 0.28011882 -0.3268311 0.81942236 0.8786747 0.793741 0.6368273 -0.15840422 0.546411 -0.38181594 0.55451244 0.038206644 -0.4709255 0.46841094 0.5995225 -0.35575935 0.9309169 0.84461296 0.5331213 0.5791651 -0.62708205 -0.57219523 0.13629605 0.76149637 -0.08497317 -0.10113835 0.41591516 -0.10882729 -0.09164979 0.21173336 0.6051913 0.5282721 0.008230475 -0.10221713 -0.94071347 -0.7566934 -1.2765807 -0.8591808 0.15842052 -0.16315483 0.58412814 -0.5469939 0.14156161 -0.8165932 -0.16232783 0.66605437 1.169789 -0.019056054 0.22763288 0.3921943 0.39331374 -0.08403161 0.17608503 -0.11292842 0.85513914 0.98471975 -0.17606609 1.1308972 0.25849357 -0.15084682 1.7711978 -1.1537172 -1.1235374 0.60012823 0.6333134 -0.363719 0.4024694 -1.1996408 1.2752635 -0.21819812 -0.22569571 -0.048314624 1.3796587 0.71675825 1.0197709 1.3316684 0.061904207 -0.16723311 0.38855693 0.30988562 1.1577883 -0.49117005 -0.18061826 -0.88938624 -0.586979 -0.7002723 1.3822827 -1.2565808 0.28318697 0.35168102 -1.1275254 0.43999797 0.060387567 -0.118057735 -0.5955873 -1.2449375 0.5770046 0.9225167 -0.3878452 -0.28262675 0.31475642 0.15384118 -0.23176618 0.36944765 -0.9128885 -0.20748037 -0.11544464 0.073470816 1.2456393 -0.64688057 -0.43157938 0.22839639 1.6379658 -0.7751594 1.1182349 0.0057447697 0.87917155 1.2053431 0.23402177 -0.0020789474 1.6504521 -1.6240082 0.7225533 -0.5007998 0.119975604 -0.65150243 0.14908715 -0.11996083 0.107935235 -0.48794082 0.8014987 0.6309814 -0.39395475 0.7662439 0.43497738 1.5095081 0.54387206 0.01158699 1.317399 -0.32079917 -0.41330543 -0.099128604 -0.63940495 -0.52557266 -1.0817872 0.4308798 -0.9873982 -0.08084937 -0.6339664 0.7852749 0.23479043 -0.37045756 0.048398376 0.6906227 0.5270278 -0.7920191 0.7416441 -1.3694596 0.58568555 -1.2821178 0.44433126 1.0523647 -0.059223372 -0.07367092 0.588267 0.716963 0.84122884 1.366606 0.2881275 0.237549 -0.20201832
بكلية 1.9399774 -0.092785835 -0.90341705 -0.20248142 0.26646912 -0.4024143 0.62238836 -0.79829246 0.079715595 -0.5686218 -0.20302208 0.63852257 0.24425656 -0.7298195 0.1969919 1.648834 1.6193184 0.94777 -1.9530187 -0.259061 -1.0627167 -0.42217684 0.50021946 0.7604435 0.7754882 0.49412924 1.3108577 -0.53171825 1.4240333 -0.008509887 0.9180223 -0.84397966 3.1465278 -0.16221638 0.787761 -0.5869682 -1.1684737 0.92890394 -1.4712614 0.85327023 -0.39129782 0.016291624 -0.40079653 -0.047993857 -0.6610799 0.20417851 0.6322467 0.45936203 0.7627833 1.3513952 -1.8172915 -1.3637725 -0.4228556 -1.0178335 0.07315333 -1.0003113 -0.46390483 0.059212405 -1.3105086 -1.1013439 -1.226714 1.0502015 1.3407362 0.9336339 1.2456152 -0.09077364 0.3606215 -0.041179024 0.24872707 -0.50676894 0.8422948 0.9063861 -0.74596477 -0.8153913 0.3405047 -0.113966234 2.1452334 -0.22589114 0.41405368 1.062921 1.1585219 -0.21766637 -1.3352898 0.36203295 1.3965591 1.0423964 0.44015592 -0.36179888 -1.097703 -0.9008567 -0.4046116 -0.72208697 1.3307056 -0.4152985 0.6770609 0.06511636 0.32740742 -0.93070126 0.9469507 -0.60449904 0.7149813 -0.37645698 -0.21193634 0.18537457 1.4372536 0.16449092 0.510204 0.77554077 -1.0480584 3.0876265 1.7558255 -0.269831 1.6134866 0.5237337 -0.7437462 0.8063159 -0.29142553 -1.0567926 -0.68070894 -0.35038695 -1.6524091 -1.3814497 -0.5697457 -0.6783749 -1.1065109 1.5283058 -0.59037566 0.91961074 -1.0213779 0.17637934 1.7698603 2.306709 1.8513006 -0.76985973 0.107585296 0.6007895 0.8262202 0.1507774 -0.45082185 1.3235699 -0.28398627 -0.50297564 -0.64660776 0.3747417 0.29558238 0.8647752 -1.5328295 -1.0452762 -1.5370635 -0.5913349 -1.6507937 -0.02343135 -0.83669126 1.808931 -0.07055834 -0.8050478 0.28059447 -0.13862798 1.1655984 0.98105115 -0.06432735 0.19935228 -1.7934319 -1.7724526 -2.3859854 1.2224618 0.7336529 0.80927896 -0.27057415 -0.9759822 1.3697484 0.92667854 0.38432455 -0.6710966 0.12601212 -1.3927034 -1.3206083 -0.22014388 1.0388595 -1.2326785 -1.3096381 0.50255156 2.498674 -0.52956116 -0.60830283 -1.4702524 -0.13619545 -0.6080092 0.21918567 -1.1848452 -0.6154581 1.4419842 -1.0683061 0.6732199 0.8530823 0.30829945 -0.7248591 1.8167181 -1.2076052 -0.22046405 -0.9308882 0.017099788 0.7378112 0.90448326 -0.12015461 0.74137324 -0.45714635 0.63595736 0.9426188 1.0086769 1.0685623 -0.68445784 0.53627104 0.83173954 -0.13616927 0.90628314 1.2858285 -0.06947572 0.30528185 -0.40523338 0.36592352 0.95343643 0.69217116 -0.025316916 -1.3183157 0.28963378 0.04482294 -1.6318318 0.59326327 -0.4729357 -0.46384445 -1.2010831 -0.7777544 -0.79442763 -0.043363266 -0.57013327 -1.1635187 -1.2424519 0.47020388 1.141356 -1.3452457 0.23725164 -0.42464402 1.8758409 -0.68890285 1.1039562 0.49529752 -0.087783456 1.1287739 0.48252842 0.5934334 0.6539769 2.800889 -0.39230207 -0.3652859 0.5887329
المدرسة 1.062546 1.6330286 -1.0419903 2.3345418 0.37630132 0.9304961 -0.56279796 -0.24866739 -1.0300969 -1.0675992 1.6864207 -1.1379952 0.01934421 -1.3876718 -0.26442224 -0.04840303 -1.0808262 0.28975672 -0.2132972 0.35428357 0.21489032 0.39209667 1.4487251 -0.25144562 -0.6799876 2.187762 0.8811536 0.94068146 -0.26837674 -1.9733645 0.6443402 -0.54973227 0.22986327 1.3184865 1.1244613 -0.07032779 -0.11622205 -1.8086461 1.8188765 -0.2200086 0.17350024 1.956647 0.05748538 2.6187906 1.4034256 -0.3381047 0.30402255 0.5208404 -1.2686415 -2.1663022 1.3165987 -1.6996288 -0.6421375 0.86929506 1.5635011 1.7055906 -0.835607 -0.13488944 0.44177297 0.8985887 -0.081366956 -0.47572744 -0.05549161 -0.52556324 1.0335208 1.0880417 -1.286356 0.75354046 1.178689 0.7991469 0.3544426 -0.2869994 0.83805877 -0.0396904 0.78521734 0.3066356 0.092546485 0.17004755 -0.5822233 1.0081589 0.95340395 -0.105848566 -0.59940726 -0.675333 -1.2069542 -0.93771803 0.45367947 0.3038245 -0.70704573 0.10768781 -1.1462321 -0.22856447 -0.5553152 0.3712974 -0.43596515 -0.48605958 -0.08987248 0.22762512 -0.60831505 1.6962628 0.6621388 -0.34623605 -0.83380437 1.0840175 -0.9459842 0.87770146 1.4790864 0.4067678 -0.48226625 -1.5809926 -1.4839952 0.04014161 0.29082456 -0.9714343 1.3154204 -0.26049766 0.76825136 1.3921157 -0.31817663 0.82258534 -1.4175243 0.011195644 1.98232 -1.339824 0.71543854 0.39644328 -0.90899044 -1.2257081 -0.2631315 -0.55994 0.12683474 -0.088786215 1.2228663 1.0617366 0.6566859 -1.1878916 -0.23394233 0.16640884 -0.6144989 -0.22382751 -1.3746926 -0.8699359 0.2525311 1.0049748 -2.1740482 -0.7190204 -0.58965427 -0.32118288 0.527419 -0.90334535 0.7116592 0.8949672 0.3905416 1.5147179 1.8343114 0.27635136 1.1326692 -1.1930293 -1.1700997 -0.9777362 -0.85060173 0.6851196 -0.012981783 0.804528 0.5607948 -1.386783 0.9788489 1.7344278 -0.38181165 0.40821218 0.7647003 0.68318075 0.16049337 -0.0053177965 0.29405856 1.4665751 -0.70201087 -0.4583841 0.41488457 -0.4288888 0.67594814 -1.0201623 1.813095 0.97854507 -1.3591384 -0.09507798 1.149144 0.11257599 -1.1657864 0.75813675 0.0579359 -0.12091236 -1.0711701 0.9621847 -0.08681897 1.4674695 0.7563591 -0.8094959 0.46256736 -0.3026805 0.99113286 1.4828581 -0.6248079 1.4662384 0.5590255 -0.964489 -0.19370799 -0.29136947 -0.046753455 0.20071267 0.4224485 0.23851328 -1.4873482 -1.157675 -0.48422757 0.32109693 -0.27417132 0.45847532 0.63183004 -0.27457 0.39488515 0.53732115 0.7629292 -1.0779235 0.89881086 0.09521739 -0.44542822 0.27963457 0.21347612 0.4751386 -0.036143586 1.0744479 -0.6544799 -0.19553892 -0.001961881 1.0202951 -0.41287088 -1.4895182 1.7275572 -1.4167482 -0.112864174 0.17240845 0.81964296 0.8914566 1.3381826 -0.030383809 -1.0983152 0.7273425 -1.6512724 0.3270187 0.44011548 0.13734971 0.13567905 -1.1549219 -0.14519762 0.22893572
او -0.6833008 -0.70632625 -1.2757591 0.3342078 1.2513832 1.2226688 -0.7121161 0.6817092 0.67540437 -1.2161452 0.1711499 -0.781724 -0.38979205 -0.04757891 1.3619449 -0.21700269 -0.77642554 -0.18884186 -0.26575914 0.24747835 0.17228594 0.060051944 -1.7092232 -0.37912774 0.08929667 -0.8591476 0.56470925 0.16391686 -0.20083487 -0.21291535 0.09112752 -1.1892196 -1.1133684 0.7654558 -0.02156564 -0.70434916 0.3005335 -0.17524561 0.17212439 1.9245939 -1.5711564 0.93439245 0.26889524 -1.758409 -0.0025016095 0.59889114 1.2194272 -1.5301964 1.1887932 0.20284706 -1.0416088 -1.7134346 0.49099794 0.09298762 0.30373624 -0.48927432 -0.20460224 0.38505542 -0.8575907 1.8383985 -1.3444655 -0.7101697 1.2806411 -0.63829494 -0.49894014 0.1966551 0.425725 0.31983018 -1.1205643 -0.5169157 -0.35129496 -0.13786797 -0.8390796 0.30914742 0.09262492 -0.32873407 -0.46187204 -0.88975066 0.5707278 -1.4946579 -0.6162218 -0.5018008 -0.41987875 -0.8852495 -0.34480688 0.26459566 -0.2706102 -0.7193916 0.45447642 0.5039539 0.51707137 0.48434973 -0.66130596 0.1719369 0.06948654 -0.6825376 -0.0059667733 0.7925602 -0.103472084 0.67990875 0.15874618 0.5651885 0.7191908 -0.89884 -0.99875146 -0.76167715 0.35496852 -0.8557925 0.61282736 -0.76357484 -0.012132889 0.32965225 -0.5423945 0.6972573 0.11234915 -0.4452792 0.101137735 0.8098543 0.7254215 -0.19054015 0.3613518 0.5857087 -0.24437615 -0.32519197 0.47103372 0.2151247 -0.2577071 -1.1902564 -0.6030216 0.834828 0.35174975 -0.75630945 -1.0186322 0.5698031 0.18444902 0.28292537 -0.40474516 0.76296914 0.09038409 -0.3637091 0.291503 0.4925085 0.87860996 0.44565207 0.19672091 0.45274964 -1.3905171 -0.20229311 0.77845347 0.8571796 1.4221811 0.34219816 0.45198098 0.3422819 -0.20854303 0.07074725 -0.4393507 -0.25728577 0.2731555 0.027329553 0.26137194 -0.22399126 0.52480394 -0.25234038 0.6300578 0.31397593 -0.8317082 -0.09475561 0.015298284 0.86825126 -0.44523063 -0.031730685 -0.14181128 0.14211035 0.2724115 0.24254602 1.5862832 0.15543146 -0.16026781 -0.6819337 0.06438983 -1.0122728 -0.5043793 -0.36274981 -0.24277586 1.4893897 -0.043595117 0.39021215 -0.32225823 0.56411034 0.25733066 -1.5119411 -0.028865788 1.8265237 -0.4803008 0.8169073 2.2900653 -0.9856741 0.6501253 0.04241183 0.63188994 1.2681175 0.08132299 -0.91999614 0.2656005 -0.49791634 0.27980125 -0.2888451 -0.8930115 0.41211507 -1.1370494 0.94697005 -0.7620101 -0.4766615 -0.8736291 -0.08306364 -0.072667524 -0.055293567 0.47916207 -0.532037 0.18654953 -0.19373418 -0.14119428 0.109654084 -0.040698886 -0.13948512 -0.26982293 0.7752261 -1.0707271 0.5606636 0.7660981 -1.8270148 0.41226476 -0.1483652 0.17816526 0.34285727 0.09737998 -0.8045738 0.36405602 -1.6659552 -0.586629 0.012991735 0.07818018 -0.026537843 0.47132337 -0.20879732 -0.60925895 -0.70652646 0.26694652 0.19055617 -0.51605666 1.0979885 0.016861057 1.1463203 0.31825858 -1.2356645
مقعد 0.4176767 -1.659489 0.49170613 -1.1223202 -0.325966 0.0026321528 0.14180967 0.17733717 0.16211085 -0.80058646 0.034901723 -1.23601 0.78352255 -0.445859 1.0169747 -1.962518 -0.5503709 -1.2029182 -0.8915449 0.15300779 -0.45051023 0.8713117 -0.7068071 0.48539034 -0.5701174 -1.2497445 1.988085 1.3471463 0.97194844 0.9870798 1.3247268 -2.5235014 -0.21316044 0.041091975 1.4630274 -0.5717456 -0.13036044 0.45563495 -1.4969556 1.0220025 -0.5487243 0.44138187 1.3374798 -1.9828429 -0.9467336 -0.042012084 0.009777613 -0.8194452 -0.53149855 -0.35484576 -1.0599655 -0.9664397 0.13708353 -0.04042863 -0.13702855 0.12417042 0.15101726 -0.7318358 0.24751538 0.3729364 -1.6768206 0.4777689 -0.2658796 -1.3110961 0.39449814 0.16171943 0.37879744 -0.7672233 1.3375107 -0.38951346 0.925361 1.5607837 -0.33324814 0.1144367 -0.11572695 0.5873472 0.44837153 -1.3162705 0.031815827 -0.71190953 -0.41600457 0.21342176 0.23165938 -0.7286499 -1.3162591 -0.3903975 -0.6991573 0.18493578 1.5077683 0.13621053 -0.47907907 0.60773623 0.116237596 -1.2275138 -0.048106942 1.0385784 0.6664875 -0.63335776 0.0411259 -0.44130737 -0.41606906 -1.1435009 -0.7688975 0.09631265 0.35375303 0.46298632 -0.4056388 0.20027629 -0.06495309 0.47454128 0.75685215 -0.24273752 -0.28054562 -0.532787 -0.8787985 1.091141 -0.215275 0.035127975 0.40674132 0.27506772 -0.13657781 0.67971927 0.097323835 -0.5312058 0.12700246 0.042319454 -0.90462375 1.0293648 -0.18480645 0.76883423 0.667394 0.42065206 0.21060637 -0.7555009 -0.23416261 0.30535188 -0.5987266 -0.034826774 0.25504962 -0.3054545 -0.40131652 -0.6885029 -0.520314 -0.60367024 0.05391674 -0.009701921 0.8896774 1.1718947 -0.16888532 -0.43773627 -0.2147896 -0.32788748 -0.71097165 -1.0714426 0.6158116 0.6426641 -0.92999315 0.87022054 0.45100105 -1.2672782 -0.35087106 -0.7285897 0.62681377 0.28232569 0.70794225 0.7112841 0.55964124 -1.1320895 0.13112319 -1.8787148 0.6159528 0.47603533 0.69555646 0.178412 0.6373416 1.0919722 -0.2978525 -0.35929826 0.19948891 1.1070476 1.0722873 0.8139707 -0.40629554 0.11463024 1.1364293 0.14276631 0.45056206 0.253729 -0.415426 -0.34596118 0.020187106 0.09700562 -0.18322755 -1.4658805 -0.13595031 -1.6305817 -0.78035074 -0.16473891 0.10788653 0.107423365 -0.4769912 -0.30264622 0.5443684 0.20621704 -1.2183915 0.509275 -0.3877133 0.750087 1.4481394 -0.06081516 0.23285627 -1.5621917 0.20883828 0.027858585 1.5102524 -0.60800874 1.193772 0.0070696706 0.6730065 -0.11704857 -1.3301952 1.1522408 0.25772622 0.7930766 -0.12248637 -0.086384416 0.8180288 -1.491627 1.0410142 -1.2874074 0.40235686 0.41065317 -0.4181725 0.62631863 1.2413486 0.2642917 1.0209233 1.2572975 0.27796644 1.5896461 -0.5265878 -0.2916811 -0.044256423 -1.4312502 -0.6373366 0.49078125 1.2761217 -1.8559952 1.7238064 0.16775627 0.9738051 -0.59189594 0.18866602 0.04471896 -0.9714392 -0.25877845
الماستر 0.92687774 0.20174025 0.43240994 0.49824733 -0.3630924 0.6691883 -0.16683005 -1.3777411 0.021460807 -1.2149545 0.36329406 -1.0022029 -0.1365303 -0.03550492 0.111785606 -0.35675612 -0.17671256 -0.322811 0.5843001 0.16218849 -0.91681254 -0.6098588 0.9302094 -0.27827808 -1.7008734 0.78317255 0.82299703 0.22951376 0.13436538 -0.25523126 0.11571679 0.43392602 -0.60147125 0.045030884 0.7647968 0.9797751 -0.8697657 -0.68102384 0.09738797 -1.4576772 0.90892553 0.5837104 0.91774976 2.1895247 1.0403874 -0.59107524 0.7975545 -0.07884155 -0.26328695 -0.9023432 0.0070215533 -0.50256526 0.4006017 1.0729682 -0.5430933 0.89067733 0.3018366 -0.27814782 0.63903123 0.6462045 0.3008433 0.45239025 0.9673769 0.68303424 0.43271124 -0.3760941 -1.0015287 0.33379176 1.2857385 -0.22682224 -0.06541871 -1.0947683 0.33827057 -0.8389081 0.25229135 0.94539505 -0.1660833 -0.13466935 -0.27424675 0.9806573 0.83707535 0.38586205 0.1968605 -0.028369877 -0.8996887 -0.44389248 0.05956091 -1.0617573 -1.1025938 -0.30385575 -0.4530801 -0.1774367 0.7317981 0.5243418 0.013514059 0.38437995 0.29443327 0.29143924 0.078027196 1.6307701 0.35844994 -0.8201042 -0.70633376 1.3409314 -0.54867053 1.0982155 1.2590464 1.8057725 -0.12989593 -0.40065837 -1.0324246 -0.24190982 0.014932926 -0.5024038 0.07192603 -0.17227216 -0.16408923 -0.3464453 0.55542535 0.5620593 -0.8093223 0.87154126 -0.2081864 0.09436885 -0.34139076 -0.07982838 -0.97284573 0.5380188 1.6108211 -0.37755856 0.29725868 -0.02425133 0.3190983 0.18373366 -0.37268126 -0.981958 0.60433155 0.7035638 -0.6132468 -0.2848057 -0.18236974 0.81635034 0.565717 0.7582779 -0.98054427 0.36959714 -0.5150097 -0.27929908 0.7115857 0.06248282 1.138859 -0.23101838 0.01212801 0.70827436 1.6300597 -0.07841843 0.974308 1.0541145 -0.78438723 -1.1421161 -0.04613928 0.23241444 1.0702422 0.98435974 -0.06754652 -0.27116057 0.7413445 -0.24414212 0.14159954 -0.9655175 0.55370146 0.11260251 -0.22307372 -0.6981859 0.0935467 1.1293484 0.35708472 -0.8638142 0.0072203707 0.4195621 0.29534748 -0.38172978 -0.6166935 0.12600492 0.6712994 0.43256122 0.31969112 -0.38614905 -0.27094904 0.6020068 -0.34259754 0.63391083 -0.9111747 0.21714877 0.518913 0.13255689 -0.31660816 0.19849133 1.4964843 0.8168009 -0.23882732 0.21859771 -0.44475132 1.0794723 0.72778314 0.39347866 -0.048534814 0.6951957 0.45609343 -0.8124399 0.83950526 0.148627 -1.6544572 -0.49250787 0.24184231 0.51468223 -0.34017062 1.4133365 0.55771244 0.63521117 -0.97673154 0.18499243 0.25514624 -0.031991802 -0.089197636 0.5300572 -1.2575465 0.24141613 0.68476665 -0.5563977 -0.05524724 1.1427807 -0.33728278 -0.6827553 -0.17484073 -0.6293016 -0.90777576 0.30061385 1.2698637 -1.0696596 -0.36998016 0.8359863 0.4211919 0.13664818 -0.011602371 -0.28131655 -0.86080766 0.59488904 -0.74261355 -0.92395 -0.1892957 -0.3623019 0.59628767 -0.60812455 -0.53833556 0.0004085093
المتاحة 0.8753891 -0.013707808 0.77139175 0.33413032 -0.2656641 0.036742967 1.252669 -1.501948 -0.10580515 -0.29656366 0.5504796 0.41244447 0.3654527 0.055255197 -0.060063712 -0.32659155 0.09926009 0.19480592 -0.30342904 -0.047817055 -0.82827884 -0.79866475 1.1645042 0.4745768 -1.0886756 0.47087556 0.5106565 -0.2757602 0.29377094 -0.016091932 0.9291181 -0.17964901 1.0125548 -0.4356479 1.0787898 0.22864203 0.028802678 -0.3364897 -0.24819314 -0.79986465 1.3742588 -1.3949884 -0.3851761 1.8178788 -0.15765247 -0.1640026 -1.1931716 -0.57311094 -0.9654776 0.069863684 -0.4993313 0.76497525 -0.4808204 -0.6555066 -0.32762545 0.4593489 -0.8498 0.7269308 0.7842592 -0.72824776 0.14017585 1.0418109 -0.50884396 0.5352402 -0.40242016 0.10185977 -0.70368546 -0.32863203 0.907037 0.8962273 0.28843042 -0.033800546 0.30443937 0.37562516 0.030894598 0.2695819 0.5542719 0.39455795 -1.0113206 2.0352998 0.1448769 0.58500385 0.16729872 0.72517073 0.26683855 0.26736805 0.19361053 0.36637306 -0.5286387 0.8166943 -1.1350116 -1.0544736 1.1204352 0.528802 -1.0253065 0.20387557 0.107818484 0.14063224 -0.0130453985 1.1859205 -0.77575195 -0.33088022 0.012128761 0.82062614 1.0344561 0.40286687 -0.18332797 -0.19020364 -0.8438847 0.4895915 -0.7031372 0.28701672 0.6181873 -0.17571825 -0.33523571 1.1362897 0.034761027 -0.70632064 -0.90609753 -0.6984767 -0.35254192 -0.08863973 0.4001431 -0.46507788 -0.4336202 -0.4413638 0.5499111 0.91979474 -0.01611928 -0.35115263 -0.3280114 0.40812588 0.7120865 -0.7786773 0.353639 -0.512303 0.10470084 -0.09987327 -0.240479 0.06292017 1.0446554 -0.48432767 -0.62206537 -0.5821899 -0.7922553 -0.19439568 0.14851226 -0.5599563 -0.76236576 -1.0412879 -0.84041035 -0.23118764 -1.0471587 0.002784994 0.34628883 0.45092967 0.7084559 0.6229176 -0.44221517 -0.3797873 0.45546535 -0.2173659 -0.46463746 -0.23573595 -0.44015306 0.29478332 1.5993071 0.88385135 0.44059405 -1.2307776 0.24644099 1.712106 0.4707127 -0.46611816 1.3150322 0.060715284 -0.7248472 -0.24569504 0.27179208 -0.20772679 -0.0386346 0.5939103 1.1634929 0.7314173 -0.123155065 -1.3517137 -0.29267347 -0.115573086 -0.11765157 -0.9537663 -0.4627867 1.4760996 0.39751744 -0.82940644 0.77086574 -0.9524932 -1.6079841 0.67184585 0.52478963 0.6226351 -0.90729594 -0.45562476 0.20261855 1.1199147 -0.31928217 0.14659025 -0.47614652 0.14655899 0.57997864 -0.04671945 1.2213906 -0.44749495 -0.25417227 0.16118105 -0.13445555 -0.049301893 -0.5613295 -0.037243675 0.536606 0.40331206 -0.08888111 1.3327227 0.4052027 0.62859756 -0.021271436 0.8423007 -0.37839928 -0.7317056 1.0779308 -0.7874796 -0.5515798 1.9924558 -0.53790724 -0.13280638 -0.45634112 -1.0798734 0.42251083 0.63438886 -0.5754115 0.4666714 0.18249886 0.78565353 -0.5679763 1.0800253 -0.2913155 0.7886214 0.08167244 0.92574096 -0.6331828 -0.5359101 0.946864 -0.111714944 0.71224695 -0.5697273 -0.8572253 0.3515555
مسلك 0.30213684 1.1240827 -0.67801553 0.48804593 0.38525873 0.436461 -0.78107923 0.03642971 -0.95109355 -0.6482374 0.32752296 0.18585803 0.3263808 -0.68253654 -0.3795342 0.24213403 -0.1315124 -0.008032375 0.019257195 0.12844257 -0.11191598 -0.23338525 0.41665116 -0.6109811 -0.32782367 0.25270423 0.5118857 0.48188984 -0.5334391 -0.48168954 -0.06759729 0.89554346 0.13699615 0.27665305 -0.38508952 0.63299406 0.2963423 -0.032618765 -0.25566125 -1.1354839 0.22578745 0.3141395 -1.111931 1.5794278 -0.048800074 -0.52983546 -0.41343552 0.6834872 -0.50819606 1.1300334 -0.4869028 0.23757762 0.2162157 -0.3985199 -0.19304313 0.11550372 -0.88480026 0.1946068 -0.44300985 -0.8194438 -0.26645884 -0.30648977 -0.7959008 -0.16702302 1.0463271 0.02290483 -0.060269307 0.8114933 -0.0071403184 -0.17759371 -0.35300165 -0.14087115 0.75996053 -0.85891354 -0.39298442 0.23295008 0.4989868 0.76746786 -0.31966284 0.97540355 0.34650254 0.27760795 0.44652194 0.6103694 0.14816746 -0.47705075 0.2054942 -0.827842 -0.6226815 -0.15953334 -0.09742058 -0.7141336 -0.18766533 0.2706122 0.1543955 -0.012225027 0.12439981 -0.074968725 0.030858936 0.74803025 0.11912811 0.6888588 0.04647836 0.3355052 -0.61462003 0.8156329 0.75671303 0.24186967 -0.6049086 -0.32663682 0.9871659 -0.17435917 0.10601661 -0.8053695 0.77905875 -0.49058777 0.8376053 -0.08976137 -0.7047109 0.12449552 -0.9623647 -0.5130694 0.37077886 0.2272356 -0.19803339 0.14613053 -0.396794 -0.7763149 -0.44917727 -0.2048433 0.38282207 -0.4379355 0.06899533 0.76047796 0.03836364 -0.9733694 0.8636288 -1.0645943 -0.9965799 -0.06765981 -0.728626 0.69238955 0.6263229 0.9322105 -0.3511945 -0.10784647 -0.45648524 -0.872619 0.15675484 -0.19868013 -0.15242036 -0.52492934 0.94288534 0.30217656 0.52649564 -0.08759699 0.25646192 -0.26168984 -0.082704775 0.42263046 0.6881096 0.30280203 0.415644 0.25314006 -1.4898471 -0.7297847 0.31198585 -0.16541956 -0.99800736 -5.7387027e-05 -0.15497819 0.017069794 -0.104687944 0.28422835 -0.49973497 -0.86840445 -0.85250413 0.45553058 0.37258914 -0.18071891 -1.2441766 -0.7184276 1.7688504 0.11500587 -0.9308741 -0.76252854 -0.43195286 -0.34309867 0.20279598 0.11975501 -0.06600918 -0.10057076 -0.6472928 0.30355138 0.5148313 1.0264422 -0.06555629 0.27646002 0.5780622 0.68884677 1.2228315 0.4795911 0.3795985 0.88928175 0.6921408 0.12455898 -0.25403816 0.31241328 -0.46981966 0.00019905632 0.88865906 0.343729 0.29280132 -0.1682871 -0.86483014 0.35956585 0.22776857 0.11372022 0.6101769 -0.172691 0.6363759 -0.03811737 -0.18421996 -0.37441772 0.3784237 0.40177858 -0.39939845 0.57913965 -0.8029547 -0.21096021 -0.22289142 0.517731 -0.06817832 -0.5330245 0.07466556 0.0275833 -0.56748104 -0.7164717 0.535047 0.08321863 0.4293856 -0.56471914 -0.4117592 0.83776104 -0.35827005 0.17629501 -0.18397607 0.95889765 -0.4106158 0.18508425 -0.8801573 0.57842696 0.46697193 -0.03766176 0.021461682 0.5952393
الإجازة 1.5080352 0.44397518 2.0534685 0.8623739 0.33046335 1.2295351 0.018998435 -1.865935 0.016714225 -1.5474615 0.28866634 -0.9320395 -0.74972016 -1.2961386 -0.16052255 -1.273572 -2.1017132 -0.47929227 0.27648184 1.1159244 -1.0804411 -0.31155735 1.2236413 0.14788334 -1.8865123 1.6515814 0.9659323 1.7262281 -0.83995175 -0.71725875 -0.329228 -0.9206412 -0.98931706 0.42528275 1.2394661 1.3195964 0.13581836 -0.58527327 -0.2368352 -1.338297 1.4671935 1.2530694 0.77098346 1.8303313 1.0036373 -0.41410357 2.2419314 -1.029305 -0.9076662 -1.6918066 1.8998535 -0.28584835 0.3614334 0.1603917 -0.7587137 1.3954762 0.19473948 0.7848188 1.9839994 0.9782325 1.1534381 -0.42765817 -0.8255181 0.10242304 1.065031 0.074228615 -1.4255515 0.53821814 0.6347325 -0.5298898 -0.23641613 -1.3440909 1.2804432 1.1095923 0.6640387 1.7240151 -0.7231883 -0.39169383 0.18759604 1.3237466 1.0959892 0.6160139 -0.40504187 0.84854364 -0.7093488 -1.222023 0.45442486 -0.5063563 -1.14753 -0.08793851 -0.32028726 -1.9024434 1.2053932 0.13085815 -1.4442087 -0.7212354 -0.10322602 0.1339469 -0.79679924 2.0375621 -0.27264863 -1.1435457 -0.52594185 -0.22810337 -0.22321674 0.9244846 2.7526803 -0.23011447 -0.9813207 0.4640012 -1.1091976 -0.79439265 0.8538277 -0.8134593 0.8337406 0.40160143 0.5661676 0.05874081 -0.36710352 -0.5467146 -0.94331175 1.0014849 0.5782714 -1.1775379 -0.31773427 -1.0466089 -0.82255536 0.9392508 1.2214104 -0.8114539 -0.4933494 -1.423153 0.07194178 -0.050393708 -0.1912904 -1.0205852 -0.21242553 0.8518373 -1.0841838 -0.84990704 -0.94227767 -0.3739718 0.06924841 0.9123483 -1.4693006 -1.9884211 0.8649717 0.060707003 0.9740685 -0.18874833 1.5617865 0.6417369 0.96491206 0.053905003 1.4990457 -0.08104192 1.3098978 0.4264277 -1.4429824 -1.53495 -1.2496332 0.5706764 1.2888187 1.6353405 0.47490838 0.073980965 0.81224036 0.51492363 1.4569645 -0.5843402 0.9405789 -0.8723703 1.2196053 0.69624853 0.17671923 1.280557 0.23244946 -0.6460214 -0.7384351 1.3792589 0.9811701 0.75101465 -0.41189167 0.020159917 0.26110107 -0.5952313 -0.17356254 -0.31943044 -0.5184772 -0.663678 0.07570516 0.40350905 0.23496518 -0.070366144 1.0465772 0.59411305 -1.9314438 -0.95442027 0.8161995 0.604619 -0.17839782 -0.47699165 -1.3860846 1.0633583 1.3080347 -0.20551965 0.2616459 0.98020494 0.16961282 0.093442336 2.1288629 -0.6646364 -1.7548062 -0.21838717 1.3261606 -0.17428271 -0.45246816 -0.34912816 -0.22356836 -0.51843256 -1.0813997 -0.56321615 0.70656407 -0.5532943 -0.74469966 0.2228497 -0.5438714 0.7053528 0.41666964 -0.52376986 -1.0913103 2.865784 -0.438243 -0.3737535 -0.20584953 -0.13113892 -0.7117696 0.44862312 -0.18913859 -0.54921305 -0.08167839 -0.10038303 1.4669634 0.25095916 0.7746818 -0.5466263 -1.5652322 0.7482446 -1.3542222 -0.94895744 0.43482453 -1.4941666 0.08428722 -0.37757373 -0.9887387 -1.3856449
دبلوم 0.2056161 0.4599396 -0.35028642 0.9219404 -0.22545831 0.1339225 0.7655083 -0.28590316 0.54619586 -0.05963622 -0.028050367 -1.1217039 0.000633472 -0.01919159 -0.26008472 -0.13288966 -0.020463988 -0.44239748 0.4047303 -0.4888165 -0.2633158 0.37085336 2.2300987 0.14588693 -0.8877033 1.0190117 0.15388763 0.6444784 -0.3362844 -1.2341442 0.14032824 0.075539075 -0.7025403 0.6282749 0.68060774 0.7167956 -0.6753133 -0.86468875 1.2277368 -0.78091276 0.62914824 -0.3263823 0.0334248 1.7642041 0.82371366 -0.72304785 0.60255075 -0.33772796 -0.5496241 -1.3483244 1.110001 0.06664732 -1.6620107 1.06341 0.38627222 1.3554235 -0.5661968 -0.008565143 1.1040845 1.0036117 0.42556217 0.9000602 -0.32076195 -0.08723595 0.80711734 0.3109643 -1.0543076 0.20526282 0.63944083 0.35292128 -0.7731583 -1.044624 -0.23240328 0.66370237 0.48500615 -1.0938166 0.09032332 -0.25460005 0.72326213 0.62965685 0.50637865 0.84354854 0.09937679 -0.36286226 -0.941528 -0.27789435 0.3908052 -0.0575898 -0.24660525 0.14244784 -0.68741214 -1.0751463 0.31452087 0.71768194 -0.3164517 -0.1585218 -0.25365576 0.29441547 0.28026217 0.5427378 -0.22597207 0.24174547 0.74769056 0.29368597 0.5229454 1.2192751 0.6315959 0.27567765 1.0879693 -1.380487 -1.8071269 -0.1436651 -0.2893463 0.31847498 0.23368323 -0.16820046 0.1355772 0.72494316 -0.10286546 -0.31103036 -0.3801577 -0.10334402 -0.257738 -0.8930331 0.47352245 0.30109096 -0.14739135 -0.1387766 0.43756643 -0.14090025 -0.094352305 -0.06395109 1.1631308 0.13403279 0.35483867 -0.33130082 0.05770281 0.31905386 -0.40064883 -0.3337144 -0.3883817 -0.7962097 0.22505158 0.37407422 0.15118308 0.0424416 0.5430636 0.054705713 1.0267255 0.06704953 1.2758563 0.76037365 0.40101972 0.17601721 1.2530191 -0.43838194 -0.13062915 -0.68000877 -0.7051434 -0.049607202 -0.15817071 0.09746226 0.40935215 0.10911615 0.38989118 -0.6686214 -0.020872615 0.6900405 -0.02089996 -0.58962435 0.30872682 0.905705 -0.31834015 -0.17415799 -0.04129558 1.1019247 0.6518994 0.048073117 0.45119354 0.06684234 -0.062170316 -0.1241198 0.5809497 0.4213821 0.45400962 1.0354115 0.02917814 -0.12008214 -0.0060689966 0.46577442 -0.63873535 -0.037052367 -0.20779797 0.49019596 -0.46149552 0.3491996 0.71691036 -0.14565583 1.523073 0.4010691 0.08164567 0.17628787 0.2963264 0.07962471 -0.4505164 -0.08354023 -0.8957474 0.3741396 -0.3440543 -0.45686132 -0.07304166 0.29264596 -0.87319076 -1.1380788 -0.7003386 -0.6364999 -0.3454838 0.37189627 0.8223128 0.254219 -0.23460293 0.17016035 0.18809028 -0.26249006 1.1202673 0.4618241 -0.74767804 0.11544983 0.7675338 -0.63234544 0.20405734 0.7376541 0.9122587 0.26033312 -0.38124403 0.088730834 0.21633722 -0.24696867 1.0862195 -1.5441477 -0.12223919 1.4548061 0.3412529 -0.85874534 0.81729984 0.3086148 -1.8734603 0.6352208 -0.7779939 0.09462556 0.21114983 0.029847324 -0.5709377 -1.4898255 -0.100672975 -0.765241
جدع -0.31248134 1.3985822 -0.21582906 1.2438607 0.52464134 1.1048162 0.6753224 -0.013666813 -0.4153133 -0.2649999 0.84941304 1.4665221 -0.17250371 -1.4169803 0.35816145 1.915991 -0.75149405 -0.38336912 -0.07671464 1.0507337 -0.8102832 -0.5246627 1.2321583 0.3532849 0.4044942 0.70015275 0.6759899 -0.8917588 -0.0014553028 -1.1950372 0.32027072 0.60467833 0.40847135 0.0901459 0.7612521 -0.8909812 -0.119443215 -0.3857016 -0.39504942 0.5075796 -0.081220545 -0.743534 -0.8558187 2.5352557 1.2394271 0.43391836 -0.4015918 0.59545285 0.4055139 -0.5338979 0.25745273 -0.02269774 0.4349116 -0.3224387 0.5634744 -0.41663975 -0.42067057 0.7156685 0.3297188 0.27874014 0.634315 -0.14622614 -0.36386514 -0.14946033 -0.46327487 1.2131356 -0.78936535 -0.020233814 -0.013130992 -0.43456483 -0.6303733 -0.19897863 0.38565835 0.9829212 1.0206343 0.16145304 -0.08952109 1.2800843 -0.36048833 0.79531705 0.14141087 0.61386526 0.6260025 0.17938346 -0.41080448 -0.95322686 0.82577664 0.25957656 -0.93879956 1.614627 0.19502653 0.1693267 0.36482915 0.8825784 -0.68928444 -0.087210275 -0.4916941 -0.16869555 0.45807672 1.3934458 0.6909674 0.6183247 -0.81690264 0.3438454 1.5555377 0.52483845 1.8943706 0.12170703 -1.306493 1.196723 -0.94824606 -0.23353234 0.17672047 0.24940321 0.31964937 0.91944677 -0.34343916 -0.7143883 -1.6636151 0.8361274 -0.13904025 -0.31212622 0.8002964 -0.5988957 0.14370102 -0.30227754 1.1740217 0.4105366 -1.0120884 -0.38275605 1.1294041 -0.39906842 -0.73828965 0.47818488 0.29068226 -0.1559161 0.10741178 -0.101412565 -0.83771586 -0.5522338 1.1828115 -0.62193364 0.3180637 -0.11038352 -2.5051863 -0.8833693 -1.172201 -0.92160285 -0.11554488 0.51202357 -0.26031634 0.6287811 0.5916038 0.873735 1.4993762 -0.9209797 3.135513 -0.28166914 0.69103074 0.66667044 0.20053253 -0.45664048 -0.4155811 0.8631618 0.76873773 0.0058579245 -0.18953958 1.8279161 0.42618263 -0.21479228 -0.00024304756 0.7613886 0.1386631 0.30816358 1.2066807 0.97438806 -0.12446368 0.5907065 -0.58052385 -1.2098441 1.0112715 0.68711674 0.4529288 1.6671754 -1.080159 -0.1657791 -0.51944184 -0.16675192 0.16537718 -1.5357128 0.3655591 -0.016742775 0.24941826 0.6318956 2.0151079 0.57120794 -1.43762 1.015763 -1.3822211 1.18466 0.84736484 0.46858722 -0.02363173 0.6722688 1.5407135 0.74888337 0.27782387 -1.6296246 0.26994827 0.19700533 1.2049916 -0.06626497 0.05181422 0.33826646 -0.3090087 0.24534535 0.63669086 -0.44729853 -0.11805401 -0.36425865 1.4801813 0.5835151 1.017288 0.43168312 0.08540733 0.88441503 -0.43424425 -0.07863004 -1.1156145 -0.32836083 -0.12890033 0.038193088 -0.364567 -1.6996143 -0.62396586 -0.22091985 -1.4044241 -1.5165493 0.68596923 0.3830183 0.16867043 -0.33736944 -1.1076201 2.1936333 -1.0936806 -0.7873869 0.20019265 1.8991882 -1.039004 -0.37289116 0.8554567 -1.0121974 0.5017226 -0.47934553 -0.6108125 0.5797871
والتقنيات 0.65738183 -1.1132894 -0.23234384 -0.2666253 -1.0226707 0.29673925 1.6582075 -1.2798568 1.4291372 -0.2564065 0.8102717 -0.13510531 0.26626414 -0.13461047 0.25132954 0.054839533 0.44840828 -0.3514635 -0.6127038 0.8098131 -0.7953996 -0.9753247 1.0560732 -0.18077517 -0.84543556 -0.0996685 0.31308314 -1.2501177 1.4904237 -0.05731633 1.627763 -1.0266669 0.20897116 0.03767996 1.7833526 -1.0326539 -1.6945292 -0.13191925 -0.83974254 0.2716751 0.80869496 -0.5815921 1.080079 0.09842901 1.1271037 0.07920806 0.7532029 -1.0677285 1.2201116 -0.98060983 -0.033801604 -0.3919854 0.54367656 0.21915002 -0.17855 -0.037582085 0.5132585 -0.15489657 0.5960364 0.20869935 0.3094052 1.3235037 1.2848171 1.9522501 -1.3968011 0.04983031 -0.4106407 -0.4703248 0.29569688 -0.5918577 0.19389087 -0.08709782 -0.51650286 0.4676342 0.685317 0.9276181 -0.22966854 0.06342876 -0.2573272 0.58904994 -0.023907393 1.0723753 -0.48533115 -0.290651 -0.15553889 0.09531371 -0.4633712 -0.7693154 0.40937114 1.039693 0.000108213644 0.91012824 0.85321766 0.11992628 0.24635038 0.27189186 0.23315565 0.017054358 0.43934494 1.3535271 -0.090258084 -1.0550457 -0.6671862 0.5845759 1.2488602 -0.31918034 0.4517051 0.8847688 -0.1536008 0.792122 -0.9818701 0.013116797 -0.34736535 0.83306 -0.44186714 1.0889283 -0.6989688 -1.0251431 -0.04168867 -0.50423366 -0.2294125 0.6609314 -1.1417328 0.07013968 -0.6116373 0.18006675 -0.67271715 1.775773 -0.15831885 0.46200076 1.0918642 0.93696153 0.04888002 -1.2572085 0.6885199 0.318956 -0.48096216 1.0079037 0.19447622 0.6833572 1.8044482 0.06505387 0.3382758 -0.7009283 -1.1672753 1.0098052 -1.4261574 -0.44735897 -0.5282522 0.3753989 0.42076054 0.15102465 -1.5258675 0.6474458 -0.17201106 0.17321111 1.0149176 1.6130558 1.0557439 -0.3616995 0.64526725 -0.37968236 -0.01083959 0.36898962 0.39248475 0.60474795 0.15306576 -0.331987 0.72784585 -1.3005973 -0.055129163 1.6051688 -0.3944814 -0.79241896 1.6340873 0.5620934 0.60966104 -0.7252429 -0.96294576 -0.7251471 0.57679665 0.7006826 -1.4866459 0.55782187 0.103467695 0.022647986 -0.21150537 0.1209979 -0.019573314 -1.640777 -0.38205242 1.1386863 -0.14238892 0.77407354 0.9517227 -1.6301442 -1.3362538 0.88630503 -0.34651873 0.9768403 -0.9944027 0.28209254 -0.16156681 -0.5432137 0.35431322 1.0468072 -1.0557483 0.40667534 0.19541651 -0.26200157 0.2616332 -0.8767659 -1.1653926 0.032334838 0.11840601 0.31178138 0.050232038 0.87833023 -0.6278319 1.0065187 -0.80005485 0.42105946 0.98865306 1.5676657 -1.1844864 0.21794571 -0.9716503 -0.6718693 0.7607125 -1.1283153 0.71896493 -0.007640634 -1.0713137 -1.5507131 0.01601699 -0.70284075 -0.7411009 0.45840696 0.8042207 0.5832113 -0.92830586 0.33021048 -0.5918059 0.6303188 -1.0181144 0.00848814 0.52465534 0.46798745 -0.29805073 -0.6581025 1.1548731 0.009366338 1.1788604 0.19737808 -0.26497465 -0.4424926
هو 0.9906586 -0.35552734 0.8456758 0.7024899 0.11372848 1.1451473 -0.45992762 -1.5175391 0.34398815 -1.0657893 -0.3574377 -0.83824015 -0.47116336 0.012590043 0.5493159 -1.1630701 -0.8600239 0.61302835 0.81446916 -0.060837213 -0.30216935 -0.4845136 -0.6203395 0.31026277 -0.7799098 -0.10875777 0.5685088 1.0676373 -1.0807235 0.2957313 -0.45212418 0.22753541 -0.042621285 -0.38786227 0.059614453 1.3117107 0.42689157 -0.42365462 -1.09817 -0.7901703 0.6747439 0.0027327964 -0.2015584 0.7271697 0.1658615 0.034229856 0.22427228 -1.2352024 -0.38823667 -0.08441877 -0.57751864 0.688962 0.34363046 -0.87859344 -0.4577808 -0.17152755 -0.04077313 1.3583512 0.22257267 0.14979792 -0.113773644 -0.0022938708 -0.5801755 -0.23426336 0.79360807 -0.28107846 -1.1006858 0.2647791 0.5034966 0.31527188 -0.2785592 -0.83076686 1.0009543 -0.13859731 0.18061355 0.4643323 -0.19781353 -0.29499257 -0.513073 1.0088918 0.20793979 0.94468147 -0.48351625 1.5596429 -0.7384238 -0.22637586 0.55637556 -0.2153359 0.2368901 0.21190064 -0.030656777 -1.0657332 0.5913761 -0.28238162 -0.7991796 -0.8394772 -0.010058459 0.53042096 -0.5188799 0.950533 -1.7723875 -0.092262916 0.001089805 -0.114343695 -0.7980612 0.393856 1.0614011 -0.119966164 -1.095149 0.153283 -0.3158603 -0.4238679 0.25732344 -1.4070908 0.44542035 -0.058448996 0.6172083 -0.20197667 0.51761514 -1.043668 -0.5304851 1.250185 0.32932913 -0.4093974 -0.4691349 -0.7085009 0.35093212 0.23466173 0.5733836 -0.38644186 -1.1030263 -1.1081178 0.065297715 -0.73612696 0.16533712 -0.9756809 0.002210945 -0.35235584 0.12877867 0.43898052 0.39340144 0.3619862 -0.27425018 0.71884125 -0.30686542 -1.467784 0.48264143 0.25485593 -0.03416207 0.007817825 0.18039082 -0.18414867 -0.0743063 -0.837759 0.25469536 -0.1972844 -0.26349512 0.19114375 -1.1487752 -0.42665032 -0.62023395 0.13919027 1.0591971 0.29190025 -0.66145325 -0.2572666 1.2027276 -0.5697505 0.29036736 0.0032359008 0.31735414 -0.0060637826 0.75218683 0.5582731 0.023368439 0.9631755 -0.59478694 -0.9660305 -0.7875152 0.60896885 0.6457827 0.60262924 0.1858037 -0.36462098 1.12502 -0.26614466 -0.23543137 0.5189909 0.8852554 0.02225041 -0.31098413 0.32486016 0.06512835 -0.2261232 0.06322709 -0.22589943 -0.4955821 -0.25635165 1.2440776 -0.21422125 -0.1449009 -1.0826042 -0.15025118 0.47157252 0.59411687 0.033233024 0.23308083 0.2784226 -0.2613694 -0.02377867 0.44768247 -1.2132959 -0.9068536 -0.01763857 0.3248687 0.0034973333 -0.912803 -0.04733296 0.873541 0.11796511 -1.1392796 0.21762148 -0.0611109 0.14644487 0.08583626 0.3781686 -0.33207363 0.05698598 0.057841085 -0.4847034 -0.6831184 1.8609602 0.20326333 0.90992963 -0.46140578 -0.5310255 0.027598491 0.5480895 -1.3332866 -0.6168897 0.3805182 0.12391371 0.024096176 -0.3406302 0.10152401 0.23204447 -0.87005687 0.49697408 -0.71742594 -1.4344107 -0.34713307 0.019670604 -0.30411267 0.32922143 -0.42613834 -0.15881859
